svm_type c_svc
kernel_type rbf
gamma 0.0285714
nr_class 36
total_sv 388
rho -0.21766 0.00388223 0.172707 0.0801487 0.0456796 -0.0177242 -0.109204 0.11041 -0.188022 -0.14967 0.212847 0.0598122 0.09613 0.21454 -0.232601 -0.016236 -0.0898812 -0.662079 -0.143648 -0.163978 -0.469921 -0.107425 -0.147733 -0.114272 -0.0494044 0.16129 0.123566 -0.0715385 -0.27878 -0.144124 -0.230305 0.194399 -0.0917111 -0.319459 -0.0124476 0.221331 0.375529 0.292697 0.260504 0.200795 0.111074 0.316899 0.0310196 0.0702299 0.411387 0.265058 0.307321 0.412861 -0.0158521 0.201561 0.130279 -0.519178 0.0764371 0.0555923 -0.281054 0.112864 0.0723115 0.240283 0.170029 0.35731 0.332226 0.149283 -0.0651283 0.0759165 -0.0132581 0.395267 0.128479 -0.0773482 0.205766 0.170753 0.0762911 0.0416125 -0.0215938 -0.113034 0.102783 -0.191779 -0.153476 0.20911 0.0463979 0.0923157 0.210884 -0.236373 -0.0206775 -0.0938192 -0.664142 -0.147415 -0.167751 -0.472981 -0.111242 -0.151479 0.0199638 -0.0533 0.147626 0.119736 -0.0753177 -0.282443 -0.147875 -0.234797 0.19065 -0.0965327 -0.323424 -0.016862 -0.0930805 -0.127847 -0.189196 -0.275952 -0.0666726 -0.349042 -0.313578 0.0424158 -0.122958 -0.0771213 0.0442246 -0.389094 -0.188386 -0.257895 -0.748737 -0.308032 -0.326739 -0.593892 -0.274317 -0.311794 -0.14893 -0.219524 -0.0211159 -0.0494365 -0.244897 -0.43014 -0.308432 -0.387169 0.0231975 -0.259765 -0.478466 -0.184031 -0.0348331 -0.0977182 -0.187719 0.0267344 -0.264044 -0.227062 0.13499 -0.030041 0.0160506 0.136715 -0.307108 -0.0968581 -0.1688 -0.704819 -0.221215 -0.241024 -0.530086 -0.185916 -0.225183 -0.0563897 -0.129058 0.0721438 0.0437939 -0.149934 -0.351117 -0.221749 -0.304748 0.116014 -0.170678 -0.396738 -0.0925055 -0.0638178 -0.153941 0.0628878 -0.23147 -0.193827 0.168976 0.00483363 0.0508822 0.170733 -0.275197 -0.0622124 -0.134846 -0.686882 -0.18783 -0.207926 -0.50465 -0.152086 -0.191941 -0.0216775 -0.094635 0.106721 0.0785077 -0.120813 -0.320242 -0.188311 -0.273774 0.150217 -0.136915 -0.363966 -0.05791 -0.0916638 0.124681 -0.170963 -0.133088 0.229623 0.068078 0.113575 0.231339 -0.215874 0.000862222 -0.0723735 -0.651984 -0.126272 -0.146736 -0.455974 -0.0898721 -0.130345 0.0415448 -0.03177 0.16865 0.140893 -0.0536311 -0.262459 -0.126805 -0.21576 0.211334 -0.0743449 -0.301828 0.00522971 0.213327 -0.080363 -0.0411363 0.314724 0.158589 0.203136 0.316295 -0.126606 0.0925405 0.0194071 -0.595969 -0.0349716 -0.0558616 -0.380292 0.00178961 -0.0391875 0.132662 0.0600908 0.256341 0.229624 0.0387881 -0.174946 -0.0354311 -0.124266 0.29732 0.0176382 -0.205196 0.097018 -0.289257 -0.252243 0.108672 -0.0570208 -0.0106496 0.11044 -0.331069 -0.125347 -0.194646 -0.717972 -0.24649 -0.266006 -0.549038 -0.211631 -0.250346 -0.0865826 -0.155234 0.0474868 0.0171669 -0.190475 -0.3743 -0.246934 -0.329013 0.0899445 -0.196488 -0.421004 -0.118966 0.0395027 0.385281 0.236025 0.278944 0.38678 -0.0468244 0.171613 0.0995811 -0.541506 0.0455369 0.0246569 -0.309357 0.0821113 0.0412234 0.210915 0.139757 0.330038 0.30435 0.119405 -0.0959123 0.0450211 -0.0458757 0.368867 0.0982901 -0.113763 0.175826 0.351281 0.198406 0.242271 0.352813 -0.0860469 0.13316 0.0605032 -0.568741 0.00615874 -0.0147971 -0.344499 0.0428909 0.00202717 0.172848 0.100943 0.294371 0.268289 0.0801051 -0.134785 0.0056217 -0.0916046 0.334648 0.0723125 -0.158836 0.137486 -0.164326 -0.12938 0.0018074 -0.42449 -0.228835 -0.297052 -0.766815 -0.345884 -0.364403 -0.620688 -0.313055 -0.34952 -0.189941 -0.259599 -0.0634519 -0.10606 -0.279239 -0.464088 -0.346336 -0.422394 -0.0192246 -0.298715 -0.512892 -0.22469 0.046061 0.166048 -0.27965 -0.06748 -0.139564 -0.689389 -0.192512 -0.212553 -0.508186 -0.156838 -0.196495 -0.0266439 -0.0994293 0.103169 0.073762 -0.123752 -0.324487 -0.19297 -0.277592 0.145589 -0.141503 -0.368563 -0.0627267 0.120912 -0.321613 -0.11281 -0.184422 -0.712795 -0.236458 -0.25686 -0.541595 -0.201455 -0.240361 -0.0725057 -0.145007 0.0561002 0.0297405 -0.165612 -0.365144 -0.237072 -0.319305 0.100164 -0.186211 -0.411407 -0.108464 -0.427421 -0.230534 -0.298718 -0.767536 -0.347446 -0.365746 -0.621833 -0.314698 -0.351084 -0.191718 -0.261266 -0.0652477 -0.0934707 -0.280926 -0.465516 -0.347896 -0.423842 -0.0210521 -0.300393 -0.51434 -0.226411 0.216674 0.145759 -0.50756 0.0921053 0.0712967 -0.266443 0.128458 0.087916 0.255108 0.186749 0.370992 0.346219 0.164676 -0.0493732 0.091647 0.0024787 0.408503 0.144001 -0.0586017 0.220809 -0.0732027 -0.652392 -0.127135 -0.147657 -0.456753 -0.0907901 -0.131165 0.0412398 -0.0326434 0.16983 0.140058 -0.0540509 -0.263206 -0.127571 -0.214252 0.210495 -0.0750834 -0.302563 0.0043556 -0.608287 -0.0544363 -0.0752472 -0.396709 -0.0176601 -0.0590978 0.113545 0.0406283 0.238089 0.211089 0.0193814 -0.19373 -0.0551825 -0.143301 0.279406 -0.00185404 -0.225696 0.0775266 0.57287 0.558615 0.278873 0.597035 0.570051 0.675299 0.633306 0.739323 0.726199 0.620437 0.469961 0.572485 0.50943 0.75875 0.607175 0.470111 0.654942 -0.0209394 -0.349945 0.0367598 -0.00416892 0.166905 0.0948243 0.288782 0.262482 0.0736935 -0.140838 -0.000569344 -0.0896235 0.328819 0.0525612 -0.165703 0.13141 -0.331507 0.0575832 0.0167486 0.187165 0.115846 0.307808 0.287637 0.0944657 -0.12028 0.0203944 -0.0688431 0.347342 0.0733603 -0.141955 0.151853 0.381737 0.346181 0.488332 0.430495 0.580055 0.5609 0.413024 0.219973 0.349519 0.268755 0.608664 0.395221 0.220057 0.460138 -0.0410233 0.130896 0.0582293 0.254669 0.227898 0.0370513 -0.176704 -0.0373929 -0.125932 0.295638 0.0158807 -0.206549 0.095055 0.17089 0.0990209 0.292567 0.266379 0.0778028 -0.136679 0.00369762 -0.0854792 0.332532 0.0567035 -0.160975 0.135468 -0.0731825 0.166769 0.0999824 -0.0946321 -0.300686 -0.167482 -0.25272 0.171361 -0.115358 -0.343097 -0.0363204 0.199355 0.173453 -0.0213331 -0.232587 -0.0953919 -0.18288 0.241543 -0.0424626 -0.268989 0.0369813 -0.0283751 -0.220067 -0.412799 -0.289265 -0.368847 0.0443152 -0.239809 -0.460784 -0.163571 -0.19251 -0.388936 -0.262918 -0.344029 0.072562 -0.212904 -0.436199 -0.135795 -0.21232 -0.074194 -0.165339 0.261641 -0.0199258 -0.24654 0.058282 0.140399 0.0519047 0.448873 0.191949 0.000263633 0.267259 -0.0890909 0.329238 0.0530695 -0.16516 0.131905 0.406529 0.209655 -0.0637285 0.218528 -0.281234 -0.497482 -0.206392 -0.223973 0.0795033 0.306955
label 0 1 2 3 4 5 6 7 8 9 10 11 12 13 14 15 16 17 18 19 20 21 22 23 24 25 26 27 28 29 30 31 32 33 34 35
nr_sv 16 7 12 14 13 12 12 11 11 10 10 13 13 14 11 8 11 9 2 8 10 4 11 11 19 11 16 11 11 6 10 9 13 11 8 10
SV
0 0 0 0 0 0 0 0 0 0 0 0.1525270741968072 0 0 0 0 0 0 0 0 0 0 0 0.168167253718914 0 0 0 0 0 0 0 0 0 0 0 1:3 2:6 3:6 4:6 5:4 6:4 7:2 8:2 9:2 10:3 11:3 12:4 13:4 14:3 15:3 16:3 17:2 18:2 19:2 20:4 21:6 22:6 23:6 24:4 26:7 27:18 28:9 29:7 30:6 31:6 32:8 33:9 34:18 35:2 
0.3486502551711148 0.4475252538330884 0.5237666332198054 0.4817401103045083 0.4710035220353487 0.4380871271328438 0.3971105280106011 0.5546565619928946 0.3624662618234731 0.3791115719218906 0.5406976702774385 0.5765566803168587 0.4883368268902704 0.5414297318986063 0.342467020569831 0.4250681476481446 0.4059329346631509 0.1502621603746129 0.3821750091889313 0.3731947204300337 0.2370055611001431 0.3975943926984509 0.3807933832870418 1 0.4237578203221267 0.5602395084956133 0.5008730885647481 0.4156684123422034 0.3221088095936142 0.3818055330295975 0.3433888892798389 0.5333424372161248 0.4057924446453201 0.3034328546303739 0.4406866683058266 1:4 2:6 3:6 4:4 5:4 6:4 7:3 8:3 9:4 10:4 11:4 12:4 13:4 14:4 15:4 16:4 17:3 18:3 19:4 20:4 21:4 22:6 23:6 24:5 25:1 26:10 27:20 28:12 29:6 30:4 31:5 32:6 33:11 34:20 35:8 
0.1555591550980046 0.1990788485414843 0.2336697678298384 0.2143887085812393 0.2059748185233529 0.1935869284344222 0.1765349699192039 0.2101043898036715 0.1607865797334497 0.1687413299806012 0.2415810622101448 0.227351172807991 0.2183127375512959 0.2411283192777705 0.1521347552818273 0.2247979983955084 0.18118607701942 0.06674830337043047 0.171076611531578 0.1659805460053208 0.1045864837898734 0.176700449600202 0.1691721392394266 0.9367299313853064 0.1882923082508125 0.2509487140209385 0.2228118060223289 0.1786312015058989 0.1433591995727606 0.1702422041994861 0.1526280183697854 0.2373384286322446 0.179824112270441 0.1355925648672482 0.1953027003410114 1:1 2:5 3:6 4:5 5:5 6:3 7:3 8:3 9:3 10:4 11:4 12:4 13:4 14:4 15:4 16:4 17:3 18:3 19:2 20:3 21:5 22:5 23:6 24:5 25:1 26:7 27:17 28:8 29:8 30:4 31:6 32:6 33:8 34:19 35:12 
0.2468136894435019 0.3161406903315979 0.3673650858811855 0.3402754534826544 0.3285716131462117 0.3077744959702506 0.2805470843712331 0.3500622614879518 0.2553405242342595 0.2677146832107186 0.3823067129757931 0.3050334875383651 0.3458942380337897 0.3827657298928428 0.2415373708627261 0.3000409324663241 0.2866581710102418 0.106669272262262 0.2703009896136185 0.2628885011775875 0.1667827016483276 0.2811052545851194 0.2680241404739758 0.8830355225632834 0.2990361152420591 0.4729379274414709 0.3538154813452833 0.2858676998392473 0.2266284524523238 0.2689731956812309 0.2422448920178037 0.3755553683856773 0.2852428490009853 0.2143723189535362 0.3108493877516711 1:3 2:6 3:6 4:6 5:4 6:3 7:3 8:2 9:4 10:4 11:4 12:4 13:4 14:4 15:4 16:4 17:3 18:2 19:4 20:4 21:4 22:6 23:7 24:4 25:2 26:9 27:20 28:11 29:6 30:5 31:5 32:7 33:9 34:21 35:8 
0.1884886936108151 0.242422992417664 0.284229809902756 0.2606412819649582 0.2563141623617655 0.2398880432217679 0.2151244306971666 0.321980501035783 0.1968593346792952 0.2055026976347669 0.2927750923511394 0.4440641646925879 0.2648189512252522 0.2941604530572947 0.185516160462762 0.2331564468301259 0.2203913842809228 0.08124764247705876 0.2056217988019929 0.201642822056189 0.1275089264938282 0.2154669618239518 0.2058708789360618 0.5394352066622361 0.2297345106481976 0.2557527657447196 0.2717867414594043 0.2478517020742693 0.174783875187045 0.2070782825523563 0.1853809911116812 0.2886393002288613 0.2187061980499816 0.1639417852687258 0.2382757417509341 1:2 2:6 3:6 4:6 5:4 6:3 7:2 8:2 9:2 10:3 11:4 12:4 13:4 14:4 15:4 16:3 17:2 18:2 19:2 20:4 21:5 22:5 23:6 24:5 25:2 26:7 27:18 28:9 29:7 30:6 31:6 32:6 33:9 34:19 35:5 
0.3621786240122301 0.4650676816577367 0.544566236113709 0.4999167456520474 0.4850450291953067 0.4557293717768532 0.4125675439459478 0.5130090450913526 0.376826607713291 0.3934608779766007 0.5612604647142458 0.7595150324221452 0.5074818984169609 0.5623829151602963 0.3551486705337895 0.4532432133737747 0.4207138009021588 0.1564042794194179 0.3958992442592095 0.3868967214192993 0.2455093243250823 0.4136982319344725 0.3940094195686597 1 0.4402698884978712 0.5377918755866427 0.5198585977089987 0.4334329414676014 0.3337828980111069 0.3953429150684086 0.3565234411055099 0.5529385257571408 0.4210742054704841 0.3152784841961022 0.4573466200148908 1:2 2:6 3:6 4:4 5:4 6:4 7:2 8:4 9:4 10:4 11:4 12:4 13:4 14:4 15:4 16:4 17:4 18:4 19:2 20:4 21:4 22:4 23:6 24:6 25:1 26:11 27:15 28:10 29:8 30:5 31:6 32:4 33:10 34:19 35:11 
0 0 0 0 0 0 0 0 0 0 0 0.6848688152102399 0 0 0 0 0 0 0 0 0 0 0 0.6168091627521307 0 0 0 0 0 0 0 0 0 0 0 1:2 2:5 3:7 4:6 5:5 6:3 7:4 8:4 9:4 10:3 11:3 12:3 13:3 14:3 15:3 16:3 17:4 18:3 19:4 20:3 21:5 22:6 23:7 24:5 25:2 26:10 27:19 28:10 29:8 30:6 31:6 32:6 33:8 34:14 35:13 
0.4352361517509293 0.5596305787492535 0.6611348226584056 0.6022766878692165 0.5861916652137295 0.5518579178693981 0.4967863489061517 0.6161750535736092 0.4535708454272656 0.4737992568857035 0.6752985733478047 0.7283356703096943 0.6098648160242454 0.6760240983310943 0.4276408345056617 0.552385436653033 0.506698593469928 0.1887180820490397 0.477328777252042 0.4658970067059992 0.2956013143923248 0.4979015821365994 0.4746585628254806 0.3827987934501454 0.5300409558063828 0.6373007857453202 0.6256181045624366 0.5339869629577706 0.4015414549768495 0.4763084428929698 0.4293041307963349 0.66515967920374 0.50629762999705 0.3786351604099818 0.5507224848384142 1:2 2:5 3:6 4:5 5:4 6:3 7:2 8:3 9:3 10:3 11:4 12:4 13:4 14:4 15:4 16:3 17:3 18:2 19:2 20:3 21:5 22:7 23:6 24:4 25:1 26:5 27:17 28:8 29:7 30:6 31:7 32:6 33:7 34:19 35:10 
0.2933504602272463 0.377435392617114 0.4403598004919383 0.4054163740504352 0.3940142723210709 0.3687742350357905 0.3349000300701573 0.40381377431211 0.304835456565011 0.3198591598840392 0.4554382619612969 0.3440965839137387 0.4116084263332553 0.4565177914320149 0.288053035623345 0.3562445368294754 0.3423006237420271 0.127362284306871 0.3216876331075274 0.314710413080759 0.199643013322712 0.335422334777329 0.3203160585727283 0.6596419081302226 0.3576213471500958 0.4032094507170407 0.4227055162575497 0.3468910005349281 0.2705665583731446 0.3220893174398377 0.2891303229837129 0.4483506149987223 0.3413154018298212 0.2550225544139685 0.3714363931925713 1:5 2:6 3:4 4:4 5:4 6:4 7:3 8:4 9:4 10:4 11:4 12:4 13:4 14:4 15:4 16:4 17:4 18:3 19:4 20:3 21:4 22:4 23:6 24:5 25:1 26:10 27:17 28:10 29:7 30:4 31:5 32:4 33:9 34:20 35:14 
0.6037799803839716 0.7744577702032979 0.9040677451889638 0.833311998157895 0.8064220712458672 0.7590727279455695 0.687159751020657 0.8546649203284192 0.6269526377956013 0.6562446591581547 0.9353572356298975 0.9822486833486969 0.8453400295931679 0.9367718717341357 0.5918284847176635 0.7927122937043327 0.7021178849046147 0.2612684964864191 0.6605496937630458 0.6445559280438595 0.4089753565040499 0.6884125097273497 0.6577917623811126 1 0.7336163617986878 0.9011178058841961 0.8664576832120403 0.7197345701651864 0.5558754182404477 0.6606168505980438 0.5936695750003973 0.9211771417373437 0.7002855565270212 0.5250151429932349 0.7615705577978868 1:2 2:5 3:7 4:6 5:5 6:3 7:4 8:4 9:4 10:3 11:3 12:3 13:3 14:3 15:3 16:3 17:4 18:3 19:4 20:3 21:5 22:6 23:7 24:5 25:2 26:10 27:19 28:10 29:8 30:6 31:6 32:6 33:8 34:14 35:13 
0 0 0 0 0 0 0 0 0 0 0 0 0 0 0 0 0 0 0 0 0 0 0 0.6803263876054836 0 0 0 0 0 0 0 0 0 0 0 1:4 2:6 3:4 4:4 5:4 6:4 7:3 8:4 9:4 10:4 11:4 12:4 13:4 14:4 15:4 16:4 17:4 18:4 19:3 20:5 21:4 22:7 23:7 24:6 25:3 26:11 27:17 28:9 29:7 30:6 31:6 32:6 33:10 34:21 35:15 
0.6126000248955757 0.7857010452241879 0.9278472265898057 0.8448315018046039 0.8265408408776143 0.770314388917068 0.6974069927857625 0.8875852743946326 0.6361027668036852 0.6653452898461559 0.9486954576620285 0.995420608371923 0.8572101388561503 0.9499863293910156 0.6003944544563551 0.7717865451866923 0.7117603553194903 0.2647922469484543 0.6708151200393351 0.6540652920457352 0.4154048882179662 0.6984511383194656 0.6670597433218607 0.9866236847780223 0.7436737407752535 1 0.8789022970669448 0.7460500199157747 0.5641478479702942 0.669467260508141 0.6035454718750844 0.9346975682236501 0.7113913815358308 0.532756714030644 0.7728347646592792 1:3 2:6 3:6 4:6 5:4 6:4 7:2 8:2 9:2 10:3 11:3 12:4 13:4 14:3 15:3 16:3 17:2 18:2 19:2 20:4 21:6 22:6 23:6 24:4 26:7 27:18 28:9 29:7 30:6 31:6 32:8 33:9 34:18 35:2 
0.4628584875923962 0.5930979820961473 0.6946559308750495 0.6387338022471402 0.6177793629483279 0.5809561186023797 0.5264015841235856 0.7071330761617608 0.4799184150394731 0.502450658637994 0.7169164647954451 0.590472422690773 0.6479798818505417 0.7177721318507818 0.4540662963130825 0.7299729898910695 0.5378805135603894 0.199466559079138 0.5064895926136515 0.493843150653949 0.3127886374893561 0.5274977340214033 0.5038831362856111 0.9955312048277604 0.5614789655113508 0.8190934949527627 0.6640802223356354 0.5473590837298766 0.4264668873932418 0.5076454931469614 0.454982882094129 0.7060560640377624 0.5367062745002831 0.402341755331523 0.5836180472927454 1:4 2:6 3:4 4:4 5:4 6:4 7:3 8:4 9:4 10:4 11:4 12:4 13:4 14:4 15:4 16:4 17:4 18:4 19:3 20:5 21:4 22:7 23:7 24:6 25:3 26:11 27:17 28:9 29:7 30:6 31:6 32:6 33:10 34:21 35:15 
0 0 0 0 0 0 0 0 0 0 0 0 0 0 0 0 0 0 0 0 0 0 0 0.141386475454251 0 0 0 0 0 0 0 0 0 0 0 1:4 2:5 3:6 4:5 5:4 6:4 7:4 8:4 9:4 10:4 11:4 12:4 13:4 14:4 15:4 16:4 17:3 18:4 19:3 20:4 21:4 22:7 23:6 24:4 25:1 26:8 27:19 28:12 29:7 30:6 31:5 32:6 33:9 34:20 35:12 
0.1379592046427431 0.1761022847697074 0.2056702662448499 0.1897803805237043 0.1861278209309392 0.173147246128721 0.1564481650971257 0.256024858753899 0.1428400513747458 0.1494387643160953 0.2131047632398415 0.3374886900878785 0.1931147799577909 0.2134731516401922 0.1353572335861722 0.2453999451270467 0.1598308665374551 0.05913221065184281 0.1499063978658808 0.1468826893367224 0.09335196898962211 0.1571509432160954 0.1501882356435142 1 0.1672864965963933 0.2666130262519233 0.1978144387825378 0.171820803175542 0.1269876387114437 0.150535222945991 0.135656136664853 0.2103103344064564 0.1601654089797957 0.1198279144708799 0.1736612906998756 1:4 2:5 3:6 4:5 5:4 6:4 7:4 8:4 9:4 10:4 11:4 12:4 13:4 14:4 15:4 16:4 17:3 18:4 19:3 20:4 21:4 22:7 23:6 24:4 25:1 26:8 27:19 28:12 29:7 30:6 31:5 32:6 33:9 34:20 35:12 
0 0 0 0 0 0 0 0 0 0 0 0.03695979390716419 0 0 0 0 0 0 0 0 0 0 0 0 0 0 0 0 0 0 0 0 0 0 0 1:4 2:6 3:6 4:4 5:4 6:4 7:3 8:3 9:4 10:4 11:4 12:4 13:4 14:4 15:4 16:4 17:3 18:3 19:4 20:4 21:4 22:6 23:6 24:4 25:1 26:10 27:20 28:12 29:6 30:4 31:5 32:6 33:10 34:20 35:8 
-0.5084502735532517 0.5092843371892488 0.5739621259719765 0.5398592098504865 0.5264501951793757 0.5010324815100793 0.4639360924892695 0.5498430024890821 0.4299267549464761 0.4475191062587115 0.5896312765289311 0.5281362859717482 0.5452511424706239 0.5896517266249663 0.4109155069055384 0.5019892521934047 0.4735289281108435 0.2010378830495393 0.4494120452487841 0.4403532157394571 0.2988425089587563 0.4643268562515105 0.4477028127098526 0.5177439381353777 0.4883538469777645 0.566589950713305 0.5564107021278721 0.4807119984060629 0.3903168730861342 0.4476381842962046 0.4113109126543442 0.5828061955425051 0.4714407797798121 0.3849460041341237 0.5028524449668426 1:4 2:4 3:6 4:6 5:7 6:8 7:7 8:5 9:4 10:4 11:4 12:4 13:4 14:4 15:4 16:4 17:4 18:4 19:4 20:4 21:4 22:4 23:4 24:4 25:4 26:3 27:2 28:2 29:2 30:3 31:3 32:25 33:25 34:25 35:25 
-0.08313673791852151 0.08345999282924568 0.09362890395603565 0.0877781736508005 0.08565986410755824 0.0824986016884942 0.07551059455882017 0.08974469780435768 0.07015271704644893 0.07139816812866338 0.09553806739807241 0.08751595083136982 0.08957634149166148 0.09660544374862561 0.06653912174566 0.08259600886062129 0.075959286730425 0.03233685263818578 0.07361238285619297 0.07259725687123803 0.0483233325574252 0.07668150512963597 0.07314263592991813 0.08491531824617539 0.08034321933199623 0.09358765914756563 0.08974939574416742 0.07784989098169744 0.06380172964140915 0.07487045236447329 0.0680534917971225 0.09430099138699943 0.07738838323450542 0.06315141533729725 0.08295182209927086 1:3 2:4 3:6 4:7 5:7 6:9 7:8 8:7 9:4 10:4 11:4 12:4 13:4 14:4 15:4 16:4 17:4 18:4 19:4 20:4 21:4 22:4 23:4 24:4 25:4 26:2 27:3 28:3 29:4 30:4 31:4 32:24 33:25 34:25 35:25 
-0.5227303643966905 0.5246110301797234 0.5903313012812181 0.5545335256880467 0.5401044479006102 0.5149702922216876 0.4770647424808258 0.5644975730870001 0.442921080498979 0.4589424341469794 0.6056756095241506 0.5430767370520022 0.5611348020310171 0.606851144117633 0.4226452171455897 0.5157630639176295 0.4858009344809117 0.2068938208142171 0.4619495551359487 0.4530856029457519 0.308035618823262 0.4778229460401423 0.459749128319922 0.5322295634243552 0.5018309746874096 0.5826970663928973 0.5713400773496515 0.4929998765758501 0.4015369374397182 0.4617384423812442 0.4222860986885764 0.5987585437809637 0.4840669770053528 0.3950546374230216 0.5171959597927724 1:3 2:4 3:6 4:7 5:8 6:7 7:7 8:6 9:4 10:3 11:3 12:3 13:3 14:3 15:3 16:3 17:3 18:3 19:3 20:3 21:3 22:3 23:3 24:3 25:3 26:4 27:4 28:4 29:4 30:3 31:3 32:3 33:25 34:25 35:25 
-0.5728217562753408 0.574367037063703 0.6471245998433397 0.6079229891940943 0.594278275012679 0.5646300764913362 0.522831115306808 0.6196444607695408 0.4852607164202288 0.5032586982763466 0.6639556250932416 0.5953122648400858 0.6150155671778402 0.6645491778032451 0.4628840534316027 0.5651073913613313 0.5308271933134189 0.226329415282316 0.5094268770281433 0.4965513858066533 0.3386729949525035 0.5230917719561812 0.5049130353444998 0.5840274170653649 0.5507503155405654 0.6387399175085335 0.6264381263988195 0.5405130341464888 0.439623989637778 0.506092893686951 0.4655069454960707 0.6569637991141803 0.5306788600840939 0.4346679644855456 0.5676855413516428 1:3 2:5 3:5 4:5 5:8 6:8 7:6 8:6 9:5 10:3 11:3 12:3 13:3 14:3 15:3 16:3 17:3 18:3 19:3 20:3 21:3 22:3 23:3 24:3 25:3 26:4 27:4 28:4 29:2 30:2 31:4 32:4 33:25 34:25 35:25 
-0.7394370088829941 0.7420969556235063 0.8352380135991212 0.7851798987396379 0.765341970774235 0.7297952172337998 0.6748829570426325 0.8007902841515868 0.6259643298086395 0.6507854652523331 0.8571035161031961 0.7682092327083774 0.7942984268303657 0.8582731898027702 0.5978751798469275 0.7297535108833406 0.6872411686906668 0.2916582389905916 0.6536704352224323 0.6414389908796189 0.4366281113735938 0.6763216575254219 0.6513078015222435 0.7529471257772264 0.7112546990552254 0.8242020342016053 0.8096635465778743 0.6987588867074996 0.567713621840198 0.6537664990446642 0.5992807515936384 0.8473122325356743 0.6855040258046865 0.5607433466780903 0.7320878742897298 1:2 2:3 3:5 4:5 5:7 6:8 7:8 8:5 9:3 10:3 11:3 12:3 13:3 14:3 15:3 16:3 17:3 18:3 19:3 20:3 21:3 22:3 23:3 24:3 25:3 26:2 27:2 28:2 29:3 30:3 31:4 32:4 33:24 34:25 35:25 
-0.8537480380858093 0.8560541650168474 0.9643003011120769 0.906691297942629 0.8833600444381188 0.8417859896010678 0.778690241805966 0.9229184169386403 0.722710154481371 0.7509350865597693 0.9901419124762356 0.8859192902442319 0.9159141308383095 0.9902882248519588 0.6901865557640487 0.8421154183704619 0.792448186973955 0.3369513220847282 0.7545039874353454 0.7397880618768296 0.5047732017045325 0.7797212345651928 0.7511951893900652 0.8692896712590902 0.8198448844725397 0.9506767393387552 0.9344509464598023 0.8055086188066837 0.6558750843035598 0.7533455700171565 0.6913284359031472 0.9783265103035027 0.7913552285807233 0.6464688821624534 0.8452346198546941 1:3 2:3 3:4 4:6 5:7 6:10 7:10 8:8 9:5 10:4 11:4 12:4 13:4 14:4 15:4 16:4 17:4 18:4 19:4 20:4 21:4 22:4 23:4 24:4 25:4 26:4 27:3 28:3 29:4 30:4 31:4 32:23 33:25 34:25 35:25 
-0.5671505477159209 0.5696255767010743 0.6413892983277789 0.6022852658322176 0.5871452052761538 0.5589705322012418 0.5174393931542323 0.6131811302971758 0.4809996499973831 0.4988638014071571 0.6570198866687067 0.5886743846626228 0.6090957883514967 0.6576021290009171 0.4585403169096448 0.5590167733341979 0.5257342574568111 0.2241716629524854 0.501238805689307 0.4916290194106593 0.3363910149091202 0.5180235205802186 0.4996611089171435 0.5775032586088025 0.5449945335838627 0.6313515698163508 0.6210747411682535 0.5349945962191058 0.4349663155235368 0.5019289123777508 0.4598508619169696 0.6503489936331284 0.5247161969449601 0.4300472947668673 0.5616184683744875 1:2 2:4 3:5 4:6 5:8 6:9 7:6 8:5 9:4 10:4 11:4 12:4 13:4 14:4 15:4 16:4 17:4 18:4 19:4 20:4 21:4 22:4 23:4 24:4 25:4 26:2 27:2 28:2 29:2 30:3 31:4 32:24 33:24 34:25 35:25 
-0.1842467888183314 -0.1434316035588769 0.2096625639339252 0.1987465087879468 0.1928998939449879 0.1811450173880241 0.1650185793654253 0.2039108975182942 0.1509867397103829 0.1570631488271553 0.2230678343410284 0.1943032131240822 0.2011482259048299 0.2251881855015635 0.1417238394213872 0.1809893298183437 0.1676881147149375 0.06236853499617515 0.1575568091256514 0.1541185535487282 0.09679278596330192 0.1648245656061335 0.1565434830551508 0.1893001013369058 0.1757797359861682 0.2119531535982786 0.207233510423805 0.1715694070625045 0.132166405717121 0.1582676115810584 0.1448695752270629 0.2199208033804232 0.1753541241639089 0.1255130959695241 0.1696425131141022 1:3 2:6 3:7 4:5 5:5 6:5 7:5 8:3 9:2 10:2 11:2 12:2 13:2 14:2 15:2 16:2 17:2 18:2 19:2 20:2 21:2 22:3 23:3 24:9 25:9 26:2 27:7 28:10 29:10 30:10 31:9 32:9 33:11 34:14 35:7 
-0.180705714099633 -0.142169262892935 0.2183726640580465 0.1952251922591463 0.188672579151251 0.1771431448318232 0.1610776965027501 0.2003002358328208 0.1458311665127417 0.1538188023601082 0.2199168270248065 0.1895306348490025 0.1994130488552482 0.219237516843409 0.1383807156175758 0.1785906249010361 0.1644392197804369 0.06073710224322361 0.155204898563889 0.1512834636993105 0.09675741696316013 0.161135103467218 0.1549233253715637 0.184635894934011 0.1721824130065282 0.2084059699549616 0.2040104414536844 0.1620567938547942 0.1313662106011363 0.1547125538054361 0.1376002741228445 0.2161471012111872 0.1590099492353322 0.1231924285880031 0.1786915626394216 1:4 2:6 3:7 4:4 5:4 6:4 7:4 8:2 9:2 10:1 11:1 12:2 13:2 14:2 15:2 16:3 17:2 18:2 19:2 20:3 21:3 22:2 23:3 24:9 25:9 26:1 27:6 28:9 29:9 30:9 31:10 32:9 33:11 34:14 35:7 
-0.07590275586416566 -0.06098235687173287 0.09028859461140695 0.08430241031195544 0.07989625063485127 0.07620092091695521 0.06717205889225411 0.08524365360966366 0.06245404696980988 0.06635313374575781 0.09400202345481867 0.08142630335741231 0.08556831547566747 0.09241310555634076 0.05817168552483661 0.07571622748906004 0.06960423007290209 0.02677158800260015 0.06578720803672573 0.06471115282333414 0.04046387660324465 0.06896529271306906 0.06601312831270827 0.07765573487595578 0.07211180859781162 0.08958394628365572 0.08627609627096915 0.07820967163813182 0.0547661084190736 0.06551503220847942 0.05847284291353987 0.09248481852341617 0.07265913652642222 0.05170950592656076 0.01861494199320161 1:4 2:6 3:8 4:5 5:5 6:4 7:4 8:2 9:2 10:2 11:2 12:2 13:2 14:2 15:3 16:2 17:2 18:2 19:2 20:2 21:3 22:3 23:2 24:9 25:9 26:1 27:9 28:9 29:10 30:9 31:9 32:9 33:12 34:14 35:7 
-0.5422698770661301 -0.4251592160653871 0.6528320669652325 0.5867796383134035 0.5699132254240862 0.5337722551259847 0.4833044174858805 0.600953014778917 0.4401901861999816 0.4629416836069942 0.6587985559487514 0.5717901456286115 0.5950209706974762 0.6592594819493787 0.4156765494216375 0.533414160566456 0.4933125192748045 0.182907405765774 0.4651813174873871 0.4534944162227684 0.2877251378919948 0.4845002793156323 0.4628890625884917 0.5551594990775057 0.5160904666397359 0.6255111087954551 0.6105687337121004 0.5225848865364456 0.3918087284491754 0.4649562313136875 0.4260486929104456 0.6482850442400885 0.5184549942300323 0.3686860536971813 0.5390692390971979 1:4 2:7 3:6 4:4 5:4 6:3 7:3 8:1 9:2 10:2 11:3 12:3 13:2 14:2 15:2 16:2 17:2 18:2 19:2 20:2 21:3 22:3 23:3 24:9 25:9 26:1 27:10 28:10 29:10 30:7 31:8 32:11 33:13 34:13 35:2 
-0.6260146930962955 -0.4884152351138835 0.7651980023911793 0.6752594087290076 0.6536301604246514 0.6143414206130426 0.557124298298455 0.6924631521873394 0.5080464899082194 0.5308177161383676 0.7587443151874286 0.6572723569741271 0.6855779834656101 0.7601101664319693 0.4799021015636148 0.6147627876514435 0.5690349635033558 0.2106974599648659 0.5356769567121793 0.5223158179609246 0.3305796457192194 0.5576928571196087 0.5326999470350262 0.6403662436983039 0.5944174448363114 0.7202637513068164 0.7025878527801637 0.5829242996863848 0.4506583261615015 0.5347787384685326 0.4802939150643206 0.7473826838124077 0.565130350549501 0.4245368722431941 0.6001683727818482 2:6 3:7 4:6 5:4 6:3 7:4 8:2 9:2 10:2 11:2 12:3 13:3 14:3 15:2 16:3 17:2 18:2 19:2 20:2 21:3 22:3 23:3 24:9 25:9 26:1 27:8 28:8 29:9 30:8 31:8 32:11 33:11 34:15 35:8 
-0.2962942184461334 -0.2306378498780463 0.3524377008600658 0.3193734268019858 0.3097722233412794 0.290552057090782 0.2627466001410211 0.3273684791948612 0.2408296305723708 0.2513281661267117 0.3598259165627846 0.3104986150782801 0.3251356997571595 0.3603528333710894 0.2266084748755587 0.2907715104295449 0.2689027088943018 0.1001175092165069 0.2537611118151731 0.2466926894012681 0.1556714972792277 0.2635778840570144 0.2520948388196694 0.3029747819393638 0.2805195012459446 0.3407717042048457 0.3317305895838389 0.2874701109744776 0.2128428853422414 0.252599992826927 0.2282665393067806 0.3535302714948476 0.2708970290045111 0.2012080710197605 0.2808618275021914 1:2 2:6 3:7 4:6 5:4 6:2 7:3 8:1 9:1 10:1 11:2 12:2 13:3 14:2 15:3 16:3 17:2 18:2 19:2 20:3 21:2 22:3 23:9 24:9 25:9 26:1 27:8 28:10 29:10 30:11 31:10 32:10 33:12 34:14 35:3 
-0.01105600258018926 -0.006680262728643323 0.02155541846938524 0.01003275262365108 0.01044799481534699 0.009391661448532611 0.009776109781341856 0.01113838972830525 0.009068947175402639 0.006740452736145085 0.01167834094993635 0.00945989010913708 0.01002704292008151 0.01332202281571851 0.008166903646563594 0.009701653651482805 0.009632378149939358 0.002931073614576305 0.007788946472297506 0.007915757270838302 0.005084574863034187 0.008392495508958257 0.007626572168837333 0.01167208060702263 0.009621210501113435 0.0106869139348712 0.01086270112984286 0.005409202992678162 0.006488199934798513 0.00818571615726767 0.006938115434918284 0.01189093682750092 0.003792396318528403 0.006680238889078053 0.1378019340559037 1:4 2:7 3:8 4:4 5:4 6:4 7:3 8:2 9:2 10:2 11:2 12:2 13:2 14:2 15:2 16:2 17:2 18:2 19:2 20:2 21:3 22:3 23:2 24:9 25:9 26:1 27:9 28:9 29:9 30:9 31:9 32:10 33:13 34:13 35:4 
-0.5575503588049856 -0.4365781993913613 0.6759487540360072 0.6030518720222019 0.5829635725356058 0.5482921055452167 0.4973574045318923 0.6171306157380155 0.4523448532309578 0.4742300473509025 0.6769428262592467 0.5864431630942429 0.6111457293200385 0.6778750141985868 0.4276418184437774 0.5490598093395104 0.5073284255944543 0.1879013600268307 0.477441930732977 0.4663808184167778 0.2957379887679533 0.4984100326392976 0.4750172097427132 0.5712422253682617 0.5306943422245388 0.6424673753077453 0.6277611815798422 0.5187119610787378 0.40203951084533 0.4773295331836949 0.4275385870744989 0.6673115548001058 0.5053892339454708 0.3784491086479432 0.5951607656441946 1:3 2:6 3:7 4:6 5:4 6:2 7:1 8:1 9:1 10:2 11:2 12:3 13:2 14:2 15:3 16:2 17:2 18:2 19:1 20:3 21:2 22:3 23:9 24:9 25:9 27:7 28:10 29:9 30:10 31:10 32:12 33:13 34:13 35:3 
-0.5528078579658063 -0.4317639048275299 0.6561155359519159 0.5970790683734535 0.5786982257114838 0.54293587149052 0.4919780059836142 0.6121518958615794 0.4484115248755999 0.4699449819982198 0.6705755390382001 0.5806732356260096 0.6058125768823733 0.6716451621491577 0.4240313132558971 0.5429065413528834 0.5026134694460952 0.1859926992673181 0.4730981849959465 0.4620132588027178 0.2924010836015998 0.4930236854764225 0.4702166632727905 0.5657474439372698 0.5254348599019526 0.6365732012771372 0.6212768633285322 0.5223994265986233 0.3980468706579496 0.4726946296336902 0.424234229140287 0.660555221738946 0.5016139755039689 0.3755584781551042 0.6227158826648124 1:5 2:7 3:8 4:5 5:4 6:3 7:4 8:2 9:2 10:1 11:1 12:2 13:3 14:2 15:3 16:3 17:2 18:2 19:3 20:3 21:2 22:3 23:9 24:9 25:9 26:1 27:9 28:10 29:11 30:11 31:11 32:10 33:11 34:15 35:8 
-0.7102446379006506 -0.5556199607690058 0.8449894278765508 0.7676194267514515 0.7435430239947038 0.6983340321756767 0.6321236131603308 0.7867418241533524 0.5765501893039998 0.6037324878080034 0.8624712908969902 0.7461617597340324 0.7788116114081872 0.8634415403931797 0.5449628372479964 0.6986008504197452 0.6464125418523081 0.2394816444354573 0.6075357083025863 0.5931943019006433 0.3760597551691314 0.6339244055833305 0.6052981063412932 0.7276149963465413 0.6751620034432165 0.8186101544135514 0.7980807766009811 0.6697801044117345 0.5120085703234561 0.6076504968483085 0.5461449813738352 0.8488616574729058 0.64889937859143 0.4824969287629293 0.7132622343513388 1:4 2:7 3:5 4:5 5:5 6:5 7:3 8:3 9:3 10:3 11:2 12:2 13:2 14:2 15:1 16:2 17:3 18:3 19:3 20:3 21:2 22:2 23:9 24:9 25:10 26:2 27:10 28:10 29:11 30:9 31:9 32:10 33:14 34:14 35:9 
-0.4600514189850375 -0.3599380693218482 0.5360511410897407 0.4970976464731198 0.4817242775133266 0.451836462847415 0.4099897472321707 0.5088616399825306 0.3730343692299238 0.3910867187651451 0.5582369460968601 0.4831941600859974 0.5041335923347587 0.5592493884288992 0.3527167555462548 0.4522736971543358 0.4183995570738585 0.1548590245186316 0.3935516707174535 0.3844204310685874 0.24308846404702 0.4101581974562836 0.3914673201835859 0.4714556124281095 0.4370875828795415 0.5300045163028603 0.5167508781408482 0.4292491748237247 0.3315355007372507 0.3936308582404729 0.3551513904602681 0.5499674603861505 0.4205955558490186 0.3123547217794002 0.5747340091072544 1:6 2:7 3:5 4:5 5:4 6:4 7:2 8:2 9:1 10:1 11:2 12:2 13:2 14:3 15:2 16:2 17:2 18:2 19:2 20:3 21:2 22:3 23:3 24:9 25:9 26:1 27:8 28:11 29:11 30:7 31:9 32:9 33:10 34:13 35:6 
-0.7395161968139208 -0.5781231731840988 0.86498693056092 0.798982954960709 0.7727418024807262 0.7270862102565876 0.6599858667891327 0.8191769116922167 0.6012620322563789 0.629334887558636 0.8976134963611068 0.7771596773965609 0.8110821051940094 0.8984271003963148 0.566825221251074 0.7268611703466741 0.6732693096143723 0.249390314128733 0.6328487788680092 0.6179134020772946 0.3913865957924263 0.6598240689063035 0.6301482267851459 0.7573163084919908 0.7028747983279349 0.8523258720677622 0.831692402300945 0.6868468890564805 0.532649987004113 0.6325369731894819 0.5749477654972768 0.8835482077131174 0.6809028975026271 0.5032141222175394 0.8321817496991532 1:3 2:6 3:6 4:6 5:4 6:3 7:3 8:1 9:1 10:1 11:2 12:1 13:2 14:3 15:2 16:2 17:2 18:2 19:2 20:3 21:2 22:2 23:2 24:9 25:9 26:2 27:7 28:10 29:8 30:9 31:11 32:11 33:10 34:9 35:2 
-0.5832398643634845 -0.4398045528990646 -0.6463298623199376 0.639079639981462 0.6163247141649375 0.5713138555099543 0.5104647116974124 0.6604952801396564 0.4600916677128339 0.4842586564609545 0.7341940419063453 0.6182724283320246 0.6506162684241126 0.7357508606809703 0.4307972837523242 0.5718274277721586 0.5226621104898843 0.177017265141422 0.488177051736433 0.4749825397219686 0.2860020775138446 0.5115581764847246 0.4850871431935651 0.5995942343126099 0.5500931510876431 0.6898783315615131 0.6700332554737259 0.5518986021865191 0.4013658085333384 0.4875306079023033 0.432158281955712 0.721307111177767 0.5229474192685228 0.3675843080373153 0.5755948626666384 1:4 2:6 3:8 4:5 5:3 6:3 7:2 8:1 9:2 10:2 11:2 12:4 13:4 14:4 15:3 16:2 17:1 18:2 19:2 20:3 21:4 22:4 23:8 24:7 25:6 26:3 27:10 28:7 29:6 30:8 31:9 32:12 33:17 34:18 35:2 
-0.4847060920991652 -0.367586942232987 -0.4862618566154892 0.5336698991478254 0.5103266226568087 0.4770104112077418 0.4260821866444651 0.5480461578580836 0.3825625535703424 0.4033834746672278 0.6128172644494631 0.5155383254307255 0.5425282450691126 0.6142698049369751 0.3598026263024806 0.477325163144428 0.4368577854560716 0.1485928133373484 0.4077723162857115 0.3952799987690814 0.2384719554620199 0.4266259805607119 0.4042641279784565 0.5004890730097212 0.4589079155110836 0.5750381108123164 0.5589618120865087 0.4348415732008998 0.3347359312984028 0.4067931159531258 0.3596730246772639 0.6022025979585606 0.434995827979704 0.3062490067949172 0.4796617567799399 1:5 2:6 3:5 4:3 5:4 6:4 7:2 8:2 9:2 10:2 11:3 12:4 13:2 14:2 15:3 16:2 17:2 18:1 19:5 20:4 21:4 22:5 23:7 24:5 25:1 26:1 27:5 28:9 29:6 30:6 31:7 32:6 33:13 34:20 35:12 
-0.2791048962794068 -0.2054051580326589 -0.2682944183203218 0.2987618960411759 0.2917819165898318 0.2673410836057642 0.2384062617414029 0.3086336158346184 0.2154791742465573 0.2258187517125868 0.3425984058402692 0.2888744723835844 0.3042303585172965 0.3434469090925021 0.2007300129486021 0.2696404954658729 0.2434831391187566 0.08272351685784221 0.2280374663419153 0.221921786092707 0.1330860623145214 0.238359385895946 0.2274329060316582 0.2799885629299181 0.2565165956762551 0.3219803444899954 0.312345365565976 0.2602682946745872 0.1871301364691519 0.2271253801117941 0.2022604805895142 0.3362761691705047 0.2432673160744522 0.1710974320659841 0.2686686811881268 1:5 2:7 3:5 4:4 5:4 6:3 7:2 8:2 9:2 10:3 11:4 12:5 13:3 14:3 15:3 16:2 17:2 18:1 19:4 20:4 21:4 22:6 23:8 24:5 25:1 26:1 27:9 28:8 29:6 30:6 31:7 32:10 33:13 34:20 35:12 
-0.1043484350237301 -0.07575845810105798 -0.1512476694925697 0.1074394368801095 0.1090524747331748 0.09601341157076587 0.08731387002488841 0.1193676958381868 0.07919892022950988 0.08171480269844032 0.124252840916781 0.1059667387392933 0.1116689503862529 0.1252404239021653 0.07228827273883739 0.1103398204457334 0.0891691641523544 0.02983850672578464 0.0821599666212619 0.07875846808076586 0.04742995198085741 0.08778503473651283 0.08222955020906508 0.1053304419825945 0.09653554657640134 0.1185178662008539 0.1138587927206263 0.1190326354098758 0.06688325436496156 0.08260018701367913 0.07496776300168354 0.1256099559673336 0.08843249969682056 0.06604447884354192 0.0976958781852834 1:3 2:7 3:8 4:5 5:5 6:4 7:4 8:2 9:2 10:2 11:3 12:4 13:4 14:4 15:2 16:2 17:2 18:2 19:2 20:3 21:4 22:6 23:6 24:8 25:6 26:5 27:9 28:8 29:6 30:7 31:8 32:10 33:14 34:21 35:12 
-0.7144484880488303 -0.5387865279712583 -0.727692593665715 0.7831015835762219 0.7543192881330668 0.7005463674652055 0.6250458493844755 0.8058775779171756 0.5623730780458629 0.5929060528690201 0.9001995699711205 0.7589909134420665 0.7968209865918683 0.9014864880860955 0.527201641793597 0.7003857518728837 0.6409383664205017 0.2165275066663296 0.5973851004750338 0.581081355666957 0.3500752170520195 0.6264233723286461 0.594457288600296 0.7341507527559321 0.6737431815267997 0.8448948355351236 0.8206292844039057 0.6884461094849097 0.4914040345182344 0.5971374065949417 0.531579054845665 0.883327938547232 0.6397179173725808 0.450211835268378 0.7041785540842938 1:1 2:6 3:7 4:4 5:4 6:2 7:2 8:1 9:2 10:1 11:3 12:4 13:3 14:3 15:2 16:1 17:2 18:2 19:4 20:2 21:4 22:4 23:6 24:6 25:1 26:1 27:8 28:8 29:4 30:5 31:10 32:8 33:15 34:15 35:3 
-0.7467690148571522 -0.5536480106761899 -0.7341318270676988 0.8032082092939431 0.7782440477373853 0.7204149247890695 0.6412781206796317 0.8314477481379365 0.5829458444577766 0.6080778279926533 0.9238657287860735 0.7850817476999354 0.8172206354068002 0.9245861814863157 0.5412761194594473 0.7187957869793915 0.6574027060369202 0.2226879575430176 0.6127897101926846 0.5961807395762931 0.3599217180866626 0.6425820640521702 0.6094890291839792 0.7630039327642518 0.6913199148088579 0.8736777560556752 0.8416471230617425 0.6915787611894444 0.5052351068654451 0.6122114276766599 0.5447495544044233 0.9063980476157079 0.6569049999464162 0.4621138866911343 0.7229745541447212 1:4 2:6 3:6 4:3 5:4 6:3 7:3 8:1 9:2 10:2 11:3 12:3 13:4 14:3 15:2 16:1 17:2 18:4 19:3 20:3 21:4 22:6 23:7 24:6 25:1 26:8 27:11 28:5 29:5 30:7 31:8 32:11 33:14 34:15 35:2 
-0.4452657471407293 -0.3366279692448954 -0.444375394908165 0.4888997195506321 0.469786665359449 0.437056501255002 0.3904351812951318 0.5037207690829844 0.3511067538993194 0.3703902498939539 0.56284782004402 0.4728862247601764 0.4979597388683584 0.5637279909553765 0.3295901039385602 0.4373210206232096 0.400045710272275 0.1353172531825182 0.3737012996572068 0.3632279895090011 0.2196077647845807 0.3912184615268073 0.3718934847005963 0.4588119334074175 0.4212098014176112 0.528134240710858 0.5129318154086769 0.404410481261435 0.3075364933323625 0.3730445340822124 0.3308551980915583 0.5521170069195303 0.399549232845916 0.2812428160771609 0.4401413918435468 1:4 2:7 3:4 4:4 5:5 6:4 7:2 8:3 9:2 10:2 11:3 12:3 13:4 14:2 15:3 16:2 17:2 18:2 19:4 20:5 21:5 22:7 23:7 24:6 25:2 26:2 27:5 28:8 29:7 30:8 31:8 32:8 33:17 34:20 35:11 
-0.4301641504627607 -0.3225536548485278 -0.4258899995270919 0.4686040926095327 0.4497476385518838 0.4194781168111886 0.373880554086073 0.4833011179178215 0.3367189709761971 0.3546688431682358 0.5388690385983924 0.4528168933515474 0.477068738599072 0.5396729282727335 0.3155739474619195 0.4187803274615939 0.3837641168265007 0.1305645140780429 0.3574709400115245 0.3479081053945842 0.2094039403758018 0.3754602322855935 0.3551822934341263 0.4395834759989479 0.4036100944817735 0.5062374549065077 0.4908756388576447 0.4076055037734375 0.2942512921942663 0.3574764266642043 0.3162691230439515 0.528907806832298 0.382841567999579 0.2699159159052532 0.4212610421213088 1:2 2:6 3:7 4:5 5:4 6:3 7:3 8:1 9:2 10:3 11:4 12:4 13:4 14:4 15:2 16:2 17:2 18:2 19:4 20:3 21:5 22:6 23:8 24:5 25:1 26:1 27:9 28:6 29:6 30:7 31:10 32:10 33:14 34:20 35:9 
-0.278106828191951 -0.2117003148867646 -0.2292122796343277 0.3098036815675405 0.292225658412859 0.2778771918675326 0.2466598318485848 0.3112508880492587 0.220842516496225 0.233646281676869 0.3559791704500478 0.2984372633537926 0.3132937091119702 0.355846944241314 0.2079305679473686 0.2677220292531476 0.2529332676389153 0.0857525193920687 0.2366987866594855 0.231059088302642 0.1396379589882863 0.2462631091956005 0.2342144677351136 0.2878835418379747 0.2631410707305832 0.3325904106479088 0.3236293519144281 0.2282557044307154 0.1959631653427985 0.2355099033716561 0.2072101810359857 0.3460147995667156 0.2520997048907159 0.1746064096415593 0.2778622106634742 1:3 2:7 3:8 4:4 5:5 6:4 7:4 8:2 9:2 10:2 11:3 12:4 13:4 14:4 15:2 16:2 17:2 18:2 19:2 20:3 21:4 22:6 23:6 24:8 25:6 26:5 27:9 28:8 29:5 30:7 31:8 32:10 33:14 34:21 35:12 
-0.2725731095463202 -0.2071788371904365 -0.3189628725649281 0.3012382934250205 0.2878678093809413 0.2687823126761255 0.2400995390563744 0.3090900256905897 0.2153931845295197 0.2276639878533911 0.3457729534056841 0.2898964698480886 0.3061844067715738 0.3461315984071368 0.2032375487764138 0.2680704901402032 0.245974664976315 0.08348395823961048 0.2295922417322941 0.2236378323925272 0.1345293004303252 0.2412732293514881 0.2278432202492514 0.2810857094381294 0.2586820395507709 0.3244250772708771 0.315616389644075 0.2554028549669115 0.1886353626818987 0.2290078027023256 0.2028138667961547 0.338732055896642 0.245422445665091 0.1726280206194555 0.2709544535691203 1:3 2:6 3:7 4:5 5:5 6:4 7:4 8:2 9:2 10:2 11:2 12:4 13:4 14:4 15:2 16:2 17:2 18:2 19:2 20:3 21:4 22:5 23:6 24:7 25:6 26:1 27:8 28:9 29:6 30:7 31:8 32:9 33:14 34:21 35:12 
-0.3673222792126803 -0.2703651720759984 -0.3645076114763267 0.3920886327714312 0.3788965737594193 0.3503679459865623 0.3128963526142963 0.4064256984708858 0.281685287096408 0.2976530959788644 0.4504831893801932 0.382503984151183 0.398904994354125 0.4518337839123849 0.2650273969078719 0.3536443761129474 0.3208054329085719 0.1086179897224157 0.2992150224986565 0.2910633687945678 0.1755882215916768 0.3141353297652502 0.2984055721346212 0.3711435312564016 0.3374542609487147 0.4254619853156107 0.4111873586639531 0.3422956035265203 0.246103657973029 0.2996690199729827 0.2654136878961599 0.4425010464487037 0.3204763175533473 0.2250879025114634 0.353155833577029 1:4 2:7 3:8 4:4 5:5 6:4 7:4 8:2 9:2 10:2 11:3 12:4 13:3 14:2 15:3 16:2 17:2 18:2 19:3 20:4 21:5 22:4 23:8 24:8 25:4 26:5 27:10 28:7 29:6 30:8 31:8 32:9 33:14 34:21 35:11 
-0.5877306362113132 -0.4431934776295657 -0.5817025757224441 0.6440667052834067 0.6206108472010099 0.5765499442133001 0.5143613006603198 0.6639393719305254 0.4624955181560528 0.4877330191909391 0.7403560788209271 0.6230324113509811 0.6555738269858012 0.7418846955872038 0.433899016420875 0.5767147261942601 0.5278246642766383 0.1784605223487332 0.4916525415421579 0.4781271491977251 0.2889761864952282 0.5155846921797783 0.4889970626936476 0.6047356405451493 0.5544950875439857 0.6961651148442878 0.6752965353033609 0.5367276145243369 0.4053753320476183 0.4913910901791101 0.4354094976049248 0.7271481109597321 0.5260129665912414 0.3701222362436445 0.5796467071339952 1:5 2:8 3:5 4:4 5:4 6:4 7:2 8:2 9:2 10:2 11:3 12:3 13:4 14:3 15:2 16:2 17:2 18:2 19:2 20:5 21:4 22:5 23:7 24:7 25:5 26:5 27:10 28:7 29:5 30:6 31:8 32:10 33:20 34:19 35:4 
-0.1466128686229572 -0.1103925222354323 -0.1497767589900649 0.1599477486433378 0.1619317232309042 0.1433745246094181 0.1275478099044653 0.1643405909368271 0.114181097337171 0.1216482170796835 0.1846246086340453 0.155549404685591 0.1629358817927797 0.1843288135041097 0.1076038636947479 0.142687033107521 0.1315604018759392 0.04388530356779194 0.1219286810883485 0.1189550204688923 0.07217117213379444 0.1282687761713699 0.1211057266244409 0.1512882085879032 0.1382176762335077 0.1733458608733211 0.1688066087621125 0.1565017092467726 0.1011509123462874 0.1228916479334153 0.1084286184902922 0.18087607636324 0.1311853654137037 0.09299392151005004 0.144806948552205 1:5 2:7 3:4 4:4 5:4 6:3 7:2 8:2 9:1 10:3 11:4 12:4 13:3 14:3 15:2 16:2 17:2 18:2 19:4 20:4 21:5 22:5 23:7 24:6 25:1 26:1 27:7 28:9 29:7 30:6 31:7 32:9 33:12 34:20 35:11 
-0.3469409149358262 -0.2629729460667096 -0.3600530804992956 0.3816091509695042 0.3675098349237769 0.3411139251952934 0.3047896617988543 0.3924450721278857 0.2741703817127536 0.2888018792154154 0.4385350320714239 0.3693091849769497 0.3878835419644721 0.4393778590115963 0.2569834892697988 0.3415434502300942 0.3121777133220273 0.105548514869445 0.290536821324077 0.2830630943294922 0.1711557482818637 0.3050383755873403 0.2900168893353188 0.3582836351874514 0.3282367703347597 0.4117844073887051 0.3995186332914459 0.3260537429330889 0.2400189253901969 0.2908973079095759 0.2584247140941335 0.4304620140189033 0.3113652212831287 0.2194190757307734 0.3433220583743108 1:4 2:7 3:6 4:4 5:4 6:4 7:2 8:2 9:2 10:2 11:3 12:3 13:5 14:5 15:2 16:2 17:2 18:2 19:2 20:4 21:5 22:4 23:6 24:7 25:4 26:1 27:7 28:9 29:6 30:8 31:8 32:10 33:16 34:21 35:7 
-0.1343260413474766 -0.1022332701134524 -0.1340915084920919 -0.1581070251590418 0.138540391154462 0.1318322067257066 0.1182566552977023 0.1477869006070744 0.1071206204215494 0.1110580440465216 0.1675564020390414 0.1401966870622708 0.1471235974499047 0.1644472831421483 0.09805318695759174 0.1312038623299941 0.1210350013293368 0.0397898097321285 0.112654229610397 0.1112152882192324 0.0684294798519742 0.117244708148406 0.112848533457796 0.1366873122096753 0.1257547092354892 0.1552666671859975 0.151931630632744 0.124913363815515 0.09600376142099171 0.1139720880332168 0.1009206579355359 0.1615038009720686 0.1205322232168539 0.0871973032441531 0.1314819928370625 1:1 2:2 3:2 4:2 5:3 6:3 7:3 8:3 9:3 10:3 11:2 12:3 13:3 14:2 15:3 16:3 17:2 18:10 19:10 20:10 21:1 22:1 23:1 24:1 25:1 26:3 27:6 28:8 29:7 30:7 31:8 32:8 33:25 34:3 35:3 
-0 -0 -0 -0.1104570295277222 0 0 0 0.0333483338049508 0 0 0.1349224461795971 0 0.01631885230121233 0.1362753211951556 0 0 0 0 0 0 0 0 0 0 0 0.08906988507915588 0.05355436301519639 0 0 0 0 0.115964579553806 0 0 0 1:2 2:3 3:3 4:3 5:3 6:4 7:5 8:5 9:5 10:4 11:5 12:5 13:5 14:5 15:5 16:5 17:4 18:10 19:10 20:10 21:3 22:3 23:3 24:3 25:3 26:3 27:6 28:8 29:7 30:8 31:7 32:24 33:25 34:25 35:3 
-0.5308512392471141 -0.4072978364176478 -0.5320703716922974 -0.6308145628028889 0.5563917626567704 0.5206852034319012 0.4691321393810529 0.592069980953845 0.4248011080758573 0.4463126848574267 0.6542555991173921 0.5603284207011744 0.5853272208045505 0.6546823693411292 0.399324768709185 0.5208674081132147 0.4781701932810615 0.1701940402980465 0.4473673656728179 0.4373103226906415 0.2707605381728327 0.4691717661455649 0.4466232758275787 0.5438785701995744 0.5020510211928002 0.6178149623380811 0.6019693182240952 0.4902051352551995 0.3748002774018495 0.4489844846852729 0.4003403178714881 0.6439652925148796 0.4801057375105451 0.3475540132620338 0.523833330193302 1:3 2:2 3:2 4:3 5:3 6:4 7:4 8:4 9:3 10:4 11:4 12:4 13:4 14:4 15:4 16:3 17:3 18:10 19:10 20:10 21:2 22:2 23:2 24:2 25:2 26:3 27:6 28:7 29:8 30:10 31:8 32:25 33:25 34:3 35:3 
-0.3900361090838805 -0.3001085297439324 -0.3915240818229355 -0.4636356697164128 0.4100744209780487 0.3824837622253313 0.3444804349361903 0.4360085533167812 0.311896999354181 0.3282003529153067 0.4812948992075435 0.4114457383445662 0.4318665607997842 0.482002987065199 0.2929144955940815 0.3840499185225945 0.353162835426982 0.1251097727638517 0.3306628685201809 0.3216132263739927 0.199634258700612 0.3458211666335563 0.3290722447184653 0.4019137514575392 0.3693528526958375 0.4540673703388413 0.4440562719510158 0.3592630471076673 0.2755855325606241 0.3296081970211869 0.2958365944299549 0.473052310002298 0.3511157736659974 0.2555575090191362 0.3846287549354516 1:1 2:2 3:2 4:2 5:3 6:3 7:4 8:4 9:3 10:4 11:4 12:3 13:4 14:4 15:3 16:4 17:3 18:10 19:10 20:2 21:2 22:2 23:2 24:2 25:2 26:2 27:4 28:6 29:7 30:7 31:6 32:24 33:25 34:2 35:2 
-0 -0 -0 -0.01174827685982743 0 0 0 0 0 0 0.05851999325871037 0 0 0.06218556324309957 0 0 0 0 0 0 0 0 0 0 0 0 0 0 0 0 0 0.03807920610092071 0 0 0 1:1 2:2 3:2 4:2 5:3 6:4 7:3 8:3 9:4 10:3 11:2 12:3 13:3 14:2 15:3 16:3 17:2 18:10 19:10 20:1 21:1 22:1 23:1 24:1 25:1 26:2 27:5 28:7 29:7 30:7 31:7 32:7 33:25 34:2 35:2 
-0.7545837354334737 -0.5806575163111209 -0.7582412680376555 -0.8969630715521343 0.7920785074794863 0.7404285127661928 0.6668074189087304 0.8427230872450673 0.6042045801212368 0.6340944686448678 0.9313115245185749 0.7958344789140005 0.8340388854171895 0.933186480886085 0.5689008483094637 0.7412152113659941 0.6820978303761157 0.2428282829766527 0.6393285036447253 0.6232362418789285 0.3857385513917938 0.6677531275419759 0.6362702450238404 0.7742619469617105 0.7149041334628364 0.8795457476554773 0.8568265535564923 0.6978561179112933 0.5324203361458287 0.6385497087233798 0.5703688429837386 0.9159306496998241 0.6804706371420575 0.4951157375728131 0.7447536564861144 1:1 2:2 3:2 4:2 5:3 6:3 7:2 8:3 9:3 10:3 11:3 12:3 13:3 14:2 15:3 16:3 17:3 18:3 19:10 20:10 21:1 22:1 23:1 24:1 25:1 26:3 27:6 28:7 29:7 30:7 31:6 32:7 33:25 34:2 35:2 
-0.8500401453659303 -0.6533909695773498 -0.8536169800045452 -0.9985851493906118 0.8921046660365444 0.8343149513119495 0.7511514417685805 0.9488444978137011 0.6800206375537396 0.7143966078455176 0.990493831126265 0.896909853956392 0.939116897048562 0.9885417385174593 0.6403649052475928 0.8344139014600915 0.7682492682725007 0.2732680734315775 0.7197431821123205 0.7016311852690156 0.433929023742755 0.7527944324851303 0.7162460027113359 0.8723014857736351 0.8050011355640161 0.9905262122013915 0.9649271206561684 0.7855523502903979 0.5999055441826725 0.719353938777908 0.6425379412621601 0.9935233533548218 0.7668658470145693 0.5574668652047454 0.8384796722950381 1:1 2:2 3:2 4:2 5:3 6:4 7:3 8:3 9:4 10:3 11:2 12:3 13:3 14:2 15:3 16:3 17:2 18:10 19:10 20:1 21:1 22:1 23:1 24:1 25:1 26:2 27:5 28:7 29:7 30:7 31:7 32:7 33:25 34:2 35:2 
-0.3298257562066513 -0.2546611075712248 -0.3312162457636926 -0.3923962060227419 0.3469714784677846 0.3236222069909273 0.2913500262000178 0.3701921313597377 0.2643584910599091 0.2778917604595961 0.4078116964688128 0.3492942044181442 0.3642558888233602 0.4085664585823675 0.249574272837278 0.3239729665109349 0.2978370746865314 0.1069760488676866 0.2802592201453177 0.2722708177111772 0.168215614263753 0.2920711935300376 0.2777518852523361 0.3387770987321363 0.3133186176868661 0.3843998129508909 0.3744089489852117 0.3044396538582428 0.2333955170823111 0.2796349558884171 0.2494098401929909 0.401425061178431 0.2975956336030006 0.216605385726984 0.325650914316399 1:1 2:2 3:2 4:2 5:3 6:3 7:2 8:3 9:3 10:3 11:3 12:2 13:3 14:3 15:3 16:3 17:3 18:10 19:10 20:10 21:1 22:1 23:1 24:1 25:1 26:3 27:7 28:8 29:8 30:7 31:7 32:8 33:25 34:3 35:3 
-0.3983027838545819 -0.3071496071694204 -0.4007645566485118 -0.4735597554579413 0.4182656966328377 0.3908427868993324 0.3512051319785454 0.4449641477003709 0.318596376481895 0.3343247320349132 0.4919085975638612 0.419477859234947 0.4409322195205014 0.4935590246477033 0.3002083428511619 0.3915299119069 0.3614712962026631 0.128034057618186 0.3393372583899931 0.3292824381229261 0.2040054524281491 0.3527965031458156 0.3358867851070458 0.4089604201397224 0.3773378880179499 0.4654028297278247 0.4522720599344668 0.3683521972442552 0.2808506129478113 0.3375346615095735 0.301998878178963 0.483139041429281 0.357642880331786 0.2620745503897166 0.393003239899091 1:2 2:2 3:2 4:3 5:3 6:3 7:4 8:4 9:3 10:4 11:4 12:4 13:4 14:4 15:4 16:4 17:3 18:10 19:10 20:10 21:2 22:2 23:2 24:2 25:2 26:3 27:6 28:8 29:8 30:8 31:8 32:25 33:25 34:3 35:3 
-0.3823463687008872 -0.2941943170857664 -0.3844741069010705 -0.4554001196301758 0.4031506826258374 0.3750433798523329 0.3374021262742879 0.4267250035738859 0.3058487199589472 0.3227214198008972 0.4693771788154017 0.4030698317638913 0.4235031811407065 0.472804245091162 0.2899759301695255 0.3758311583826715 0.3464874781648995 0.1248729492895926 0.3239997451659734 0.3149211354887917 0.1956729713622652 0.3399591636623975 0.3224686262924598 0.393328782239566 0.3626000550294021 0.4469263027242395 0.433985222736622 0.3531256913528334 0.2677129925548875 0.3226388393486411 0.2893235904556771 0.4638700512821146 0.3451669268961247 0.2515065427635015 0.3782052797793668 1:1 2:2 3:2 4:2 5:3 6:3 7:3 8:3 9:3 10:2 11:3 12:3 13:3 14:3 15:3 16:2 17:2 18:10 19:10 20:10 21:1 22:1 23:1 24:1 25:1 26:3 27:6 28:7 29:7 30:7 31:8 32:9 33:25 34:3 35:3 
-0.2381560508432768 -0.1830718989575891 -0.23909717970661 -0.2830955747730036 0.2491702423228843 0.2335068972264697 0.210922567717703 0.2671793738213847 0.19037181159873 0.2004987814134294 0.2939603072598326 0.2514686391232638 0.2628531926841375 0.2950951328885543 0.1806523933235649 0.2326204173709813 0.2149485976036053 0.07679833276395556 0.2023780522905308 0.1968379675578551 0.1217220973339621 0.2110600860711264 0.2021653816988734 0.243790521887379 0.2261785778668839 0.2768702526896251 0.2682578593874371 0.2225344233208888 0.1681403492469004 0.2014355183010444 0.180416267891896 0.2900756210452435 0.2153218008758956 0.1568374376316628 0.236124122958952 1:2 2:2 3:2 4:3 5:3 6:3 7:4 8:4 9:3 10:4 11:4 12:3 13:4 14:3 15:4 16:4 17:3 18:10 19:10 20:2 21:2 22:2 23:2 24:2 25:2 26:2 27:5 28:6 29:6 30:7 31:7 32:25 33:25 34:2 35:2 
-0.9200304412798178 -0.7075748573483936 -0.9236109153657374 -0.9824494742017889 0.965207947822367 0.9019428797155949 0.8121944979576295 0.9934543741695127 0.7360211728308163 0.7731325107876121 1 0.9701639588821294 1 1 0.6930160454712797 0.9034890500640933 0.8311934330412017 0.294768206363062 0.7784582374113478 0.7589409609428077 0.4698710725642846 0.814103043584566 0.7748739983571421 0.9434513669577262 0.8707962788876454 0.9831976422941507 0.9904696735588784 0.8502301441592528 0.6490624216832688 0.7783602547461667 0.6950254451084873 1 0.8295025508973635 0.6036091092565391 0.9074468219812469 1:2 2:3 3:3 4:3 5:3 6:4 7:5 8:5 9:5 10:4 11:5 12:5 13:5 14:5 15:5 16:5 17:4 18:10 19:10 20:10 21:3 22:3 23:3 24:3 25:3 26:3 27:6 28:8 29:7 30:8 31:7 32:24 33:25 34:25 35:3 
-0.382814373275312 -0.2939104506020149 -0.3848430919728841 -0.4543067746468527 0.4013290866452413 0.3757409041289528 0.3372539396129774 0.425718631182854 0.3063248395459398 0.3209771912429089 0.4721406860630135 0.4027832755319722 0.4220725132554985 0.4723256872579157 0.2881005746011854 0.3758914502712975 0.3453101715425453 0.1222608254136216 0.322628097194295 0.3159206847747234 0.1951433296065157 0.3377410885409056 0.3202340548662315 0.3914885397712425 0.3618510965830616 0.4472490439594073 0.4350972217108433 0.352420182271992 0.2692989154062703 0.3244239884604276 0.2882885482175809 0.4632905115069065 0.3445960129881873 0.2506255604663593 0.3766885268479258 1:1 2:2 3:2 4:3 5:3 6:3 7:4 8:4 9:4 10:4 11:4 12:4 13:4 14:4 15:4 16:3 17:3 18:10 19:10 20:2 21:2 22:2 23:2 24:2 25:2 26:2 27:5 28:7 29:7 30:6 31:8 32:24 33:25 34:2 35:2 
-0.6901505369363319 -0.5296704111326396 -0.6861011033084897 -0.8088279272555899 -0.7408930400515208 0.6586317835363213 0.606050928140817 0.8163586506148658 0.5492856721255497 0.5775195579907855 0.8373688284193013 0.7217511786955976 0.7525902383954487 0.8391551105813806 0.5195820199600055 0.6725558806007947 0.6195417779664565 0.224346221556918 0.5808561601841089 0.5673051146342585 0.3548036489619061 0.607246078884587 0.5789350903357752 0.7057125864473662 0.6484971126314244 0.7940048006006484 0.7728369960352365 0.5987607887688479 0.487282265265943 0.5819881646806029 0.5173804922007874 0.824366929213626 0.6170343483976943 0.4558936668658553 0.6748236839266154 1:7 2:8 3:8 4:2 5:2 6:2 7:2 8:2 9:2 10:7 11:8 12:6 13:4 14:1 15:2 16:2 17:2 18:1 19:3 20:3 21:4 22:6 23:8 24:6 25:2 26:6 27:16 28:14 29:7 30:9 31:8 32:9 33:12 34:16 35:3 
-0 -0 -0 -0.1304207557955789 -0.03239999309925125 0 0 0.06036986507511102 0 0 0.1678531843853138 0.002603300797225714 0.04840127464935581 0.1817575535765659 0 0 0 0 0 0 0 0 0 0 0 0.1172778831631013 0.07598527664319997 0 0 0 0 0.1550684030618769 0 0 0 1:8 2:8 3:8 4:8 5:2 6:2 7:1 8:1 9:6 10:6 11:6 12:5 13:3 14:2 15:2 16:2 17:2 18:2 19:4 20:3 21:4 22:7 23:7 24:6 25:2 26:1 27:5 28:16 29:13 30:11 31:11 32:10 33:12 34:16 35:12 
-0.5250431769964251 -0.4072443864670674 -0.5278706288575233 -0.6205726943553853 -0.5700637678049093 0.5533427131842995 0.4664809233871148 0.582376252373787 0.4233187643510328 0.4445370690716838 0.6437061054943741 0.5501154230836636 0.5793137076678848 0.6451626408803599 0.3995056708305438 0.5164405042654185 0.4760700199777362 0.1724170295574431 0.4478372234023477 0.4368532179191724 0.2727704186041403 0.4674151804857313 0.4453436058929396 0.5392917711917674 0.4987131707568103 0.6100905107849623 0.5945648344944454 0.4730664228337615 0.3748041906764311 0.4474091633675044 0.4031261346340063 0.634013431982138 0.4764211903920236 0.3502684545503539 0.520145043234397 1:7 2:7 3:1 4:1 5:1 6:2 7:1 8:2 9:7 10:7 11:7 12:4 13:1 14:2 15:2 16:2 17:2 18:2 19:3 20:4 21:5 22:7 23:7 24:6 25:2 26:4 27:12 28:12 29:9 30:10 31:8 32:9 33:11 34:12 35:5 
-0.2096357706721966 -0.1619923161021346 -0.2085071310362287 -0.244620378412343 -0.22671199588987 0.1910947591976406 0.1848515461148925 0.2478632926847839 0.1669674166294736 0.1765402655652434 0.2562433454158363 0.219625823328927 0.2308939432806657 0.2568108277282101 0.1584006653087025 0.2055538613903994 0.1890179052851163 0.06863197508168584 0.1781325352549702 0.1734673056870529 0.1079514807336626 0.1854875964805563 0.176781857682068 0.2140456705995053 0.1988884736883412 0.2419861145675596 0.2362773259746511 0.2054936943876501 0.1487210503603382 0.1785527127796705 0.1579346808431623 0.2518133549243706 0.1877618937427664 0.1395705788618353 0.2064621951597564 1:7 2:7 3:8 4:2 5:2 6:2 7:2 8:2 9:6 10:7 11:8 12:4 13:4 14:2 15:2 16:2 17:2 18:2 19:3 20:4 21:4 22:5 23:8 24:5 25:1 26:4 27:15 28:15 29:8 30:9 31:8 32:9 33:11 34:16 35:6 
-0.1615414871354683 -0.1107168937183313 -0.14301489265309 -0.1693292305298485 -0.1538226014035198 0.1518759610966841 0.1256989951035037 0.1713133907277916 0.1145365051313831 0.1199730359120519 0.1740362702288991 0.166758277140605 0.1564000865964935 0.1744041772273903 0.1074922899820905 0.1411386768038547 0.1286003306877727 0.04627350762632889 0.1206352849113235 0.1174821027968614 0.07370213022966521 0.1265296179353431 0.1203548485078012 0.1508589123496087 0.135651966493736 0.1652092859227924 0.1605716315011572 0.1462636233056663 0.1012619403481253 0.1215995795322657 0.106514250933609 0.1711230943064877 0.1273669031531945 0.09445649257502106 0.1400230178157878 1:7 2:8 3:3 4:2 5:2 6:2 7:2 8:2 9:5 10:8 11:6 12:4 13:2 14:2 15:2 16:2 17:2 18:3 19:3 20:3 21:4 22:5 23:8 24:6 25:2 26:5 27:14 28:13 29:8 30:7 31:7 32:8 33:9 34:16 35:8 
-0.3683534584418636 -0.2871424106555988 -0.3725620796200456 -0.4378837984562667 -0.4016710786467965 0.3689051035895152 0.3280251605437839 0.4063525440098665 0.2981135079634139 0.313542888396367 0.4539488716325954 0.3952135548778207 0.4077236364586627 0.4540819197461684 0.2810853342169438 0.3639374668738343 0.3364047276700901 0.1218970573624847 0.3149148844837374 0.3072733781223476 0.1920760183698485 0.3289723971923878 0.3137330260300857 0.3786418595935948 0.3517763960592553 0.4290114989774196 0.4187525651764947 0.3556248201808153 0.2635544648857474 0.3151191073726297 0.2922026722891156 0.4465153107368829 0.3431500936916902 0.2469837958137434 0.3651925617501657 1:7 2:7 3:2 4:2 5:2 6:2 7:2 8:3 9:7 10:7 11:5 12:3 13:1 14:1 15:2 16:2 17:2 18:2 19:3 20:4 21:4 22:7 23:7 24:5 25:1 26:2 27:13 28:13 29:9 30:8 31:8 32:9 33:10 34:14 35:4 
-0.5796966096924201 -0.4492085944246559 -0.5818015471889511 -0.684395265986477 -0.6294488323545501 0.5640089980596849 0.5145963311384314 0.6491568743454874 0.4674808429767857 0.489935135864762 0.7104657111386918 0.6122013924275285 0.6388110787914972 0.7120871295113498 0.4410341564063777 0.5695733684730936 0.5264598959657286 0.1907286662673613 0.4940526068861201 0.4816581768294913 0.3015172865390161 0.5149167083190154 0.4910292275899975 0.5936406145431705 0.5499630360218438 0.6722762110521245 0.6553202899967735 0.5374704461444282 0.4133542567501483 0.4928964882959672 0.4404065333183445 0.6993755856543912 0.523584805869556 0.3869535879476815 0.5727879268801749 1:7 2:7 3:2 4:2 5:2 6:2 7:2 8:2 9:7 10:8 11:5 12:5 13:2 14:2 15:2 16:2 17:2 18:2 19:4 20:5 21:5 22:5 23:8 24:5 25:1 26:4 27:15 28:16 29:6 30:7 31:6 32:8 33:10 34:16 35:8 
-0.9521801711305565 -0.7376312349000279 -0.9567924205495502 -0.9954709823041845 -1 0.9341319785358587 0.8446814890674577 1 0.7672476187510326 0.804346110099506 0.9985007532193433 1 1 0.9862391223091617 0.7230622980154571 0.9356821232252761 0.8633193384713151 0.3127697947649375 0.8101913753875462 0.79000805035727 0.4943353945371503 0.8457986165207969 0.8065816301334829 0.9759505436200413 0.9032540195845007 0.9873642191914379 1 0.8838263306981397 0.6784634000300421 0.8095561918241925 0.7247110739988595 0.9925965038825203 0.8615235440197501 0.6347273301596923 0.9399494082715397 1:8 2:8 3:8 4:8 5:2 6:2 7:1 8:1 9:6 10:6 11:6 12:5 13:3 14:2 15:2 16:2 17:2 18:2 19:4 20:3 21:4 22:7 23:7 24:6 25:2 26:1 27:5 28:16 29:13 30:11 31:11 32:10 33:12 34:16 35:12 
-0.5632095232119221 -0.4347142148381794 -0.564876542042011 -0.668400840643634 -0.6081210031104601 0.5460012010284583 0.497254569518569 0.620858751061118 0.4521951284096232 0.4738157441285401 0.6872911794017392 0.6000912954519088 0.6179748489191154 0.6884265253047971 0.4255832005171107 0.5510555095846162 0.5082082984568167 0.1842624597838989 0.4775396890542691 0.4653706249103074 0.291667816105135 0.49815076325103 0.4751635469560192 0.577213142173266 0.5318890330959608 0.65030050270897 0.6336095379820629 0.5811148142914004 0.3992878036434085 0.4769038955774528 0.4317909083571081 0.6759584814032148 0.5119492541056563 0.3733652807347347 0.5539550664159903 1:7 2:7 3:8 4:2 5:2 6:2 7:2 8:2 9:6 10:7 11:5 12:4 13:2 14:2 15:2 16:2 17:2 18:1 19:3 20:4 21:4 22:5 23:7 24:5 25:2 26:4 27:14 28:14 29:8 30:8 31:7 32:9 33:14 34:15 35:2 
-0.4718175991608868 -0.3665340039221889 -0.4767763472065401 -0.5627992421172258 -0.5134313022913298 0.4567593983353108 0.4198956743216163 0.5143667010655437 0.3812700127147048 0.3999887132231147 0.5800550984979412 0.4959105113922874 0.5211128578185025 0.5805374932774509 0.3596740339028134 0.4650009297465782 0.4291014921045082 0.1558317524743126 0.4027543088968765 0.393011411387116 0.2457288636460069 0.4208479074886557 0.4006545222760579 0.4851444979704269 0.4489957266183975 0.5495072926346843 0.5348144230222777 0.4561069832569623 0.3374367160776482 0.4023336784151436 0.3591747783269426 0.5707712738694078 0.4282331725360946 0.3157699589488091 0.4673744865301633 1:7 2:7 3:7 4:1 5:2 6:2 7:2 8:1 9:7 10:8 11:6 12:3 13:3 14:2 15:2 16:2 17:2 18:2 19:4 20:4 21:3 22:6 23:7 24:6 25:2 26:2 27:14 28:13 29:9 30:8 31:8 32:9 33:11 34:16 35:8 
-0.5750528792913722 -0.446887699814685 -0.5793990519024895 -0.6867030081544824 -0.6253487609584549 0.58561468449693 0.5117636933934746 0.6394831552256149 0.4649494143908164 0.4873109076552117 0.706809899079928 0.6066838255594418 0.635140804692727 0.7072612892722053 0.4378609084386211 0.566526850196283 0.5228170689230365 0.1892221837629751 0.4909058928015277 0.4788049128001999 0.2992600341975906 0.5125661900913395 0.48851671210631 0.591611377345455 0.5464540531631926 0.6692597691601655 0.6518686907208252 0.5337642202919629 0.4106342948278865 0.490655124314532 0.4405168734754372 0.6949406766282442 0.521852665919623 0.3844594061988121 0.5699293286839613 1:7 2:7 3:1 4:1 5:1 6:1 7:2 8:1 9:5 10:7 11:6 12:4 13:2 14:2 15:2 16:2 17:2 18:3 19:4 20:5 21:5 22:5 23:7 24:6 25:2 26:6 27:12 28:11 29:6 30:7 31:7 32:9 33:10 34:14 35:8 
-0.06730396613009162 -0.05059783671322201 -0.06720148560738108 -0.07920169082443218 -0.07137250721160163 0.1149089794492775 0.05839617262952688 0.1422274340962586 0.05635052277283728 0.05525933285147098 0.07979559958835261 0.07196446547659659 0.07180518414928942 0.07972757575530991 0.05030950791706869 0.06373752069795964 0.05997519034949866 0.02072043982908849 0.05621097838718475 0.05483865332072394 0.03389024639862858 0.0581822997140242 0.05563769022071131 0.06598670647451252 0.06188425831920315 0.07639565863622752 0.07374346118511367 0.2720398793683679 0.04623024060160033 0.05464399896248316 0.05566493596172005 0.07869342921877183 0.06126766453036333 0.04343313032078372 0.06519792590297463 1:7 2:7 3:7 4:2 5:2 6:2 7:2 8:1 9:4 10:7 11:8 12:5 13:4 14:2 15:2 16:2 17:2 18:2 19:3 20:3 21:4 22:6 23:7 24:6 25:2 26:4 27:15 28:13 29:9 30:9 31:9 32:9 33:11 34:15 35:5 
-0.06132152132042573 -0.04567156714681711 -0.06258694856672549 -0.07229026479524288 -0.06775106002272978 -0.06722587606051816 0.05634359357530182 0.06862351212794611 0.05321915927228599 0.0603604704057888 0.07606176614628982 0.06700227388291831 0.06935994231757295 0.07723531195341488 0.04877209925049154 0.06213799005124905 0.05742409088944472 0.02160743136840651 0.05381666343422995 0.0537873199325677 0.03400072915438078 0.05617016952046549 0.0543030159598835 0.06786222784547701 0.06023866703463035 0.07199299288977735 0.07129675076551258 0.05288419277889567 0.04715274567777412 0.05200641661514319 0.06045785570445106 0.07367438886561208 0.06172043927924683 0.04370929014993594 0.06207649846464897 1:2 2:1 3:2 4:2 5:1 6:2 7:2 8:2 9:3 10:7 11:7 12:6 13:4 14:3 15:3 16:3 17:4 18:3 19:3 20:4 21:5 22:6 23:7 24:6 25:1 26:8 27:14 28:10 29:10 30:9 31:9 32:8 33:9 34:11 35:1 
-0.1875861255825048 -0.147034512101312 -0.1899383802604498 -0.2198223705303324 -0.2019296430461427 -0.2024242698906503 0.1665084732777412 0.2103407374956717 0.1556180678949124 0.1859491097933726 0.2255424219543587 0.1985342622754167 0.2038785218429075 0.2251440933400861 0.1434364917342963 0.1833997714197948 0.1697253245578278 0.06358993285322563 0.1611157544240445 0.1560473282442237 0.1002442385953873 0.1673160577878563 0.1589150830208617 0.1908889286036967 0.1778618747832391 0.2144639489871897 0.209216081910054 0.2246097483752636 0.1354422572952725 0.1604614312907861 0.1898963961925609 0.2218174506517247 0.1781758357155801 0.1284128880263053 0.1846591823802224 1:2 2:2 3:2 4:2 5:2 6:2 7:2 8:2 9:2 10:5 11:7 12:6 13:4 14:4 15:4 16:4 17:4 18:4 19:3 20:3 21:4 22:4 23:8 24:6 25:2 26:4 27:13 28:10 29:10 30:11 31:9 32:7 33:10 34:12 35:4 
-0.02935445053426655 -0.01968627777442376 -0.02800854185976989 -0.03108984909708935 -0.02927127699007643 -0.01714944286997089 0.02347302543719768 0.01084675802739971 0.02083060985981015 0.02140772549547131 0.0330963490316524 0.03013569923337185 0.03026921260740016 0.03174982774397207 0.01925037202355517 0.02734461090366169 0.023454775415187 0.008796843247823993 0.02328529631050931 0.02109800674022624 0.01348187715388758 0.02377418711950888 0.02320729802783635 0.0287267275999719 0.02683387674982984 0.03113224242777521 0.02939444102201852 0 0.02146519849381903 0.02234910574304596 0.0195431097867242 0.03298650779079488 0.02264639912466744 0.02046247848649937 0.02422350635078152 1:2 2:2 3:2 4:2 5:2 6:2 7:2 8:2 9:2 10:7 11:8 12:5 13:4 14:4 15:4 16:4 17:4 18:4 19:4 20:4 21:4 22:4 23:8 24:6 25:2 26:5 27:14 28:12 29:8 30:10 31:11 32:6 33:7 34:13 35:8 
-0.7634486329151741 -0.5995984167249887 -0.7667996711464008 -0.8921583648438154 -0.8233634466752835 -0.7967501055598943 0.6817876616469007 0.842410804970953 0.6221925532647065 0.6567221652172026 0.9226541904456058 0.8014585718955465 0.8354002878497876 0.923991030231977 0.5888004557820797 0.751419945474197 0.6961443291362257 0.2611300702574879 0.6552836541486414 0.6403004731908843 0.4078407378567442 0.6832517966061014 0.6525809324625292 0.7813359549701773 0.7267357632503428 0.8768232238724808 0.8563538210353766 0.7105802273558713 0.553493023765633 0.6551689331558733 0.6059496283337849 0.909176474930492 0.6966891870286115 0.5245899345811034 0.7544256802397626 1:2 2:2 3:1 4:2 5:2 6:1 7:2 8:3 9:2 10:3 11:6 12:8 13:6 14:2 15:2 16:4 17:4 18:2 19:2 20:2 21:4 22:6 23:6 24:6 25:2 26:2 27:11 28:10 29:10 30:10 31:11 32:8 33:7 34:11 35:2 
-0.7659403390604584 -0.6014740305757603 -0.7694354133936502 -0.8942943458072095 -0.8262291939807314 -0.8204114817542513 0.6833719288732503 0.8444735622287396 0.6239518817726305 0.6561093802103387 0.925059149067432 0.8043778062332154 0.8383656591320158 0.9266341174162627 0.5899505000730476 0.7531571900264041 0.6980416015603655 0.2620704142662866 0.6577208142460313 0.6415796775391474 0.4093095729094187 0.6845996217149388 0.6544521658883923 0.783564465535981 0.7286397479397539 0.8793270846709214 0.8582474939583415 0.7132752129015054 0.5551231366236429 0.6572970930020906 0.5945964246349381 0.9118403447265733 0.6990204768546139 0.5264323946478913 0.7570005623649964 1:2 2:3 3:2 4:2 5:3 6:2 7:2 8:2 9:5 10:7 11:8 12:4 13:2 14:2 15:2 16:4 17:4 18:4 19:2 20:2 21:2 22:6 23:7 24:6 25:2 26:3 27:14 28:9 29:10 30:11 31:11 32:8 33:6 34:12 35:3 
-0.7078934402179251 -0.555245279500703 -0.7093931745054952 -0.8254232762019602 -0.762346450741665 -0.7381212383374153 0.630540102972304 0.7819890917701922 0.5772926769145693 0.6016044265945606 0.8537344233080754 0.7435101443897427 0.7736420670613086 0.8553541810010326 0.5446102119914633 0.6947613799514167 0.6441627569731103 0.2416124509270363 0.6069034449426812 0.5928853438086237 0.3778640481300034 0.6323164147904077 0.6040574966608659 0.7244432546411658 0.672582042793155 0.8120711421679483 0.7925571256042737 0.6548067424678294 0.5125365442846364 0.606836137574193 0.5434059456898263 0.8410933154923429 0.6427213965584382 0.4849783526597981 0.6977032236332726 1:2 2:2 3:2 4:2 5:1 6:2 7:3 8:2 9:2 10:6 11:7 12:8 13:3 14:4 15:4 16:4 17:4 18:4 19:4 20:4 21:3 22:6 23:7 24:6 25:1 26:9 27:14 28:9 29:10 30:11 31:9 32:8 33:5 34:11 35:7 
-0.7064346231050529 -0.555981336799361 -0.7065108976903204 -0.8242021106067582 -0.758877780995512 -0.7474103725419713 0.6276432926071837 0.7779366859965858 0.5707441720727147 0.594704656771527 0.8495421088471906 0.7392498529045383 0.7695001794041579 0.8500457441901449 0.5411629092135199 0.6914747407039515 0.6406589286601562 0.2403582383045108 0.603693508120565 0.5883300432085006 0.3756554452709454 0.628889556491364 0.6005922887186013 0.7169688567366239 0.6687961835404861 0.8078016042202614 0.7878679018189826 0.6583395032571747 0.5083607832938158 0.6055153526449064 0.5373249457948424 0.8381453334877321 0.6363675651083589 0.4826410730036959 0.695128843191649 1:2 2:1 3:2 4:2 6:2 7:2 8:1 9:3 10:7 11:7 12:6 13:4 14:3 15:3 16:3 17:4 18:3 19:3 20:4 21:5 22:6 23:7 24:6 25:1 26:8 27:14 28:10 29:9 30:8 31:9 32:8 33:9 34:11 35:1 
-0 -0 -0 -0 -0 -0.009637930699702096 0 0 0 0 0 0 0 0 0 0 0 0 0 0 0 0 0 0 0 0 0 0.001848149065618911 0 0 0.00207769662701862 0 0 0 0 1:2 2:2 3:2 4:2 5:2 6:3 7:2 8:2 9:2 10:6 11:8 12:6 13:3 14:3 15:3 16:4 17:4 18:4 19:3 20:3 21:3 22:5 23:7 24:6 25:2 26:3 27:12 28:10 29:10 30:10 31:10 32:7 33:7 34:13 35:7 
-0.1126579420973512 -0.08763870847065576 -0.1105268108151317 -0.1313125030051136 -0.1199048694390717 -0.1194863966547489 0.1002746325151335 0.1341209209557933 0.09103411178727697 0.08429330735086354 0.1352408336178945 0.1175860034193482 0.1218956123906442 0.1360828210185714 0.08654855954307111 0.1098233777899884 0.1023187445827186 0.03896877978677643 0.0955464210462896 0.09490827339782773 0.05988235002782392 0.09960538372802115 0.09600983210437516 0.1142804344461719 0.1059202361358627 0.1284413482048377 0.125066726428665 0.09821002899972285 0.08059351152370142 0.09601985766240301 0.06736049012982365 0.1339511710520862 0.09751767367925321 0.0758563324215402 0.1105231142239467 1:2 2:2 3:2 4:2 5:2 6:2 7:2 8:1 9:2 10:6 11:8 12:6 13:4 14:4 15:3 16:4 17:4 18:4 19:3 20:3 21:4 22:4 23:8 24:6 25:2 26:5 27:14 28:10 29:8 30:10 31:11 32:7 33:9 34:13 35:3 
-0.5892479124702626 -0.4610471091900151 -0.5883642893076383 -0.6852810340148299 -0.6324142995605541 -0.6460595191994989 0.5228139598988338 0.6740138636218213 0.4788050973310088 0.4998719797019737 0.7077720371158011 0.6154276536080415 0.6409280579326017 0.7092632607547797 0.4522151164077696 0.5765848697502669 0.5340161946872451 0.2002057278293942 0.5031894159870199 0.4926192873026423 0.3131562198616037 0.5247028564561601 0.5009587757902404 0.6007311203160306 0.557247071403604 0.6737246987455831 0.6585465525213796 0.5893841029887893 0.424592885631918 0.5036896332569527 0.4550565731317534 0.6977118984821956 0.5348269989435834 0.4017765456663534 0.5797684777645516 1:2 2:2 3:2 4:2 5:2 6:2 7:2 8:2 9:2 10:7 11:8 12:4 13:5 14:5 15:4 16:4 17:4 18:4 19:4 20:4 21:4 22:4 23:8 24:6 25:2 26:4 27:14 28:12 29:8 30:10 31:10 32:7 33:9 34:13 35:8 
-0.6996026988942492 -0.5494412547779559 -0.7025060655723105 -0.8182588295896558 -0.7542366383805028 -0.7328328967098348 0.6241878163599294 0.7723561875976016 0.5705377830651213 0.598621870889169 0.8452765908202254 0.7345022351163583 0.7653826042189776 0.8464508195214768 0.5389993185770374 0.6880133063622083 0.6376411987388402 0.2392396852171366 0.6006248986067866 0.5866541366970983 0.3738711763360849 0.6252098835459309 0.5978767495344585 0.7159042511588402 0.6654354728815305 0.8033087416670497 0.7841515508848617 0.6536584570425666 0.5070461474131733 0.6004185157078211 0.5386956257687527 0.8326131828464652 0.6364222362133305 0.4799662251000451 0.6906860178342084 1:3 2:2 3:1 4:1 5:2 6:2 7:2 8:3 9:2 10:2 11:6 12:8 13:4 14:3 15:4 16:4 17:4 18:4 19:4 20:3 21:4 22:7 23:7 24:6 25:2 26:5 27:10 28:10 29:10 30:10 31:11 32:7 33:7 34:12 35:8 
-0.215700914837394 -0.1708646978857139 -0.2169609666126679 -0.2531075682709172 -0.2341190314424223 -0.2277660302315246 0.1945503876999141 0.2431777022055771 0.1763718133978079 0.1843203833246946 0.2618315112904471 0.2280439173358598 0.2373303602222223 0.2627830713241668 0.1682154810661532 0.2128037869175785 0.199225756385441 0.07423827311083543 0.1860024228281927 0.1820964973540429 0.1169300034283797 0.193914342203774 0.1849362185494463 0.221280623011761 0.2056375639370533 0.2485156928059295 0.2428077684997839 0.2056825564062223 0.1551217904901354 0.1859760438452686 0.1618844950971224 0.2572541812413413 0.19740061762648 0.1470006384626291 0.2158344185714061 1:2 2:2 3:2 4:2 5:2 6:2 7:2 8:2 9:2 10:7 11:8 12:5 13:4 14:4 15:4 16:4 17:4 18:4 19:4 20:4 21:5 22:5 23:8 24:6 25:2 26:5 27:14 28:12 29:10 30:10 31:11 32:6 33:7 34:13 35:8 
-0.3859724246095104 -0.308883884859501 -0.3879232024882222 -0.444073863915572 -0.4129010849222136 -0.4011920700437247 -0.3794057525093167 0.4234690010659483 0.3194159473138329 0.3333979460702469 0.4591372567083039 0.403307201077015 0.4188969867634145 0.4587545388962756 0.3021333454005469 0.3808265542028153 0.3551243503304504 0.1397770106375491 0.3345557198368349 0.3282603018910338 0.2148212682517858 0.3476695810037752 0.3326168562009869 0.3943503047904438 0.3702132799000613 0.4375000384797224 0.4284828913783267 0.3609287726376041 0.2866586317752821 0.3333258815807814 0.3063600617491834 0.4513824848675588 0.3538162338051826 0.2800745646325629 0.3833255021447323 1:10 2:10 3:10 4:1 5:2 6:2 7:2 8:2 9:2 10:2 11:2 12:2 13:2 14:2 15:2 16:2 17:2 18:2 19:2 20:2 21:2 22:2 23:2 24:2 25:2 26:3 27:3 28:8 29:11 30:11 31:10 32:9 33:9 34:6 35:3 
-0.4216267273553373 -0.337429724780509 -0.4226907092205608 -0.4849188965279662 -0.4509944213100542 -0.438216472245381 -0.414324857740814 0.4601450692644283 0.348470781049547 0.3641430550715871 0.4992446733487644 0.440196878462204 0.456374224260038 0.5003029660074804 0.3311231128646533 0.4142928941082369 0.3863022947339376 0.1528966234115025 0.3659578783089579 0.3580295117809658 0.2348968397183911 0.3792718802729906 0.3650366502209106 0.4300545875882852 0.4024231398033206 0.4762659209140208 0.4661700186798106 0.3943763247448802 0.3132010726321969 0.3664188726872762 0.3355553205861715 0.4925312229237884 0.386433558930492 0.3041415515184273 0.4197599182197444 1:10 2:10 3:2 4:2 5:1 6:2 7:2 8:2 9:2 10:2 11:2 12:3 13:2 14:2 15:2 16:2 17:2 18:2 19:2 20:2 21:2 22:3 23:2 24:2 25:2 26:2 27:2 28:6 29:9 30:11 31:9 32:8 33:9 34:7 35:4 
-0.2994548700717765 -0.2396882181926407 -0.2997127124684023 -0.3437063279797655 -0.3208625231249912 -0.3112439345645159 -0.2944856217393997 0.3266211075017462 0.2477209000462603 0.2593412099235665 0.3534940137876148 0.3123356958285395 0.3242669877984278 0.3546516988557 0.2367672517244692 0.2941809702530179 0.2744976315529276 0.1098840291141546 0.2602778043094619 0.2543944849097131 0.1682249612872783 0.2708012375209886 0.2594304510843665 0.3048835811851232 0.2839955641026819 0.3379817868190487 0.3314828859167229 0.2807711198754282 0.2223012573623536 0.2619425895027728 0.237778540510029 0.3497120971450808 0.2744664599111398 0.2124938492406244 0.2991224214400108 1:10 2:10 3:10 4:2 5:1 6:2 7:2 8:2 9:2 10:2 11:2 12:2 13:2 14:2 15:2 16:2 17:2 18:3 19:2 20:2 21:3 22:2 23:2 24:2 25:2 26:3 27:3 28:8 29:11 30:11 31:10 32:9 33:9 34:7 35:4 
-0.02618390188288495 -0 -0.03068292469716821 -0.1877701373928107 -0.105745320605673 -0.07696407307516401 -0.009781355082993838 0.1524173865967251 0 0 0.2278255646997406 0.08502432001303457 0.1584706995424441 0.2176730967145475 0 0.01068875039872599 0 0 0 0 0 0 0 0.05490024038200497 0 0.1694173081678541 0.1396488889160208 0 0 0 0 0.2007644027491335 0 0 0.01716802655631791 1:10 2:10 3:10 4:10 5:1 6:2 7:1 8:1 9:2 10:2 11:3 12:2 13:2 14:2 15:1 16:2 17:1 18:1 19:1 20:2 21:2 22:2 23:3 24:3 25:3 26:4 27:4 28:7 29:10 30:14 31:10 32:10 33:10 34:6 35:4 
-0.6137774381593594 -0.4915186594846933 -0.615941261520785 -0.7059830241786258 -0.6569959237089333 -0.6382556774637065 -0.6038609747028816 0.6714053075211082 0.508977430479111 0.5300941866074389 0.7268312821032282 0.6411773239751868 0.6655358633300343 0.7284788082322892 0.4825396372063038 0.6038740118595873 0.5639698216588586 0.2234281568698925 0.5343070148186316 0.5222489614992486 0.3422888083537661 0.5538885063085428 0.5313851645343162 0.6267412555831443 0.5865752026616513 0.6954677179526907 0.6804375179629145 0.5746721363015939 0.4559637148238617 0.5335868259803298 0.4849515046951142 0.717367920137024 0.5623654958402201 0.4396516542777499 0.6066591060940588 1:10 2:10 3:10 4:2 5:2 6:1 7:2 8:3 9:2 10:2 11:1 12:2 13:2 14:2 15:1 16:2 17:2 18:2 19:2 20:1 21:2 22:2 23:2 24:2 25:1 26:3 27:3 28:3 29:8 30:12 31:11 32:10 33:7 34:8 35:5 
-0.3990762810409342 -0.3191155170305989 -0.4000793655445881 -0.4592283118756284 -0.4277355240974238 -0.4154142369831531 -0.3925818371516071 0.4368622628066915 0.3308899820119651 0.3452543655079102 0.4740320620978971 0.4173213296629751 0.4326953274591898 0.4738179769886607 0.3143466337056607 0.3935308458746091 0.3668764150380971 0.1456263007544258 0.3466363923229153 0.340184712402035 0.223965478205849 0.3605248636636179 0.3456285221143671 0.407345468650553 0.3813013224175821 0.4522185478266599 0.442671227386317 0.3741636003101331 0.2975973949769982 0.347222679557849 0.314461847452707 0.4673738942826252 0.366891628596509 0.2857566317157555 0.3954475097610518 1:10 2:10 3:10 4:1 5:2 6:2 7:2 8:2 9:1 10:2 11:1 12:2 13:2 14:2 15:2 16:2 17:2 18:1 19:2 20:2 21:2 22:2 23:2 24:2 25:2 26:3 27:3 28:3 29:10 30:13 31:9 32:9 33:9 34:8 35:3 
-1 -0.822386621086224 -1 -0.9923255284916438 -0.9926514092676376 -0.990896036645551 -1 0.9702595206500392 0.8511479384783081 0.8869810169462273 0.9885249201454195 0.9866964845097417 0.9549969873688471 1 0.8078865179731632 1 0.9435817434043557 0.3741778796930107 0.8926716133257162 0.8731074157866054 0.5736704612352468 0.9269080675920238 0.8889922852073784 0.9925290787521435 0.9805162479547093 0.9930924185654192 0.9976049639794319 0.9613467865245332 0.763517184545821 0.8920697107484681 0.8101751253055374 0.9992492203151813 0.941827764535305 0.7356072839724589 0.9993496854933219 1:10 2:10 3:10 4:10 5:1 6:2 7:1 8:1 9:2 10:2 11:3 12:2 13:2 14:2 15:1 16:2 17:1 18:1 19:1 20:2 21:2 22:2 23:3 24:3 25:3 26:4 27:4 28:7 29:10 30:14 31:10 32:10 33:10 34:6 35:4 
-0.1197308423530477 -0.09719892542339642 -0.1206731103111962 -0.138051952597272 -0.1279003323240386 -0.1251531970011005 -0.1185382636503308 0.1299677828296099 0.100094482248362 0.1032473742895427 0.1411892376252852 0.1248838124233802 0.1300863676638278 0.1414220974497948 0.09558847417987436 0.1179382587171142 0.1099624349922196 0.04356652121029004 0.1055802574061094 0.1018974635251985 0.06609618451589275 0.1088529543926405 0.1052574297642085 0.1225838872473944 0.1153177652098778 0.1358437863996841 0.1324238947658565 0.1119437888130556 0.08930187457667814 0.1049994321698507 0.0932772625682164 0.1404402962811527 0.110391896580925 0.08649738627885083 0.1158291859198722 1:10 2:10 3:10 4:2 5:2 6:2 7:1 8:2 9:1 10:2 11:2 12:2 13:2 14:2 15:2 16:2 17:2 18:2 19:2 20:2 21:2 22:2 23:2 24:2 25:2 26:3 27:3 28:6 29:12 30:11 31:10 32:10 33:8 34:6 35:3 
-0.3206087155461441 -0.2572751089996156 -0.3223751329199985 -0.368989656995629 -0.3436088974680163 -0.3334233491951365 -0.316513296696899 0.3519581316150016 0.2667992480379995 0.2780288725892346 0.3806095118819637 0.3350908639488384 0.3480634924858516 0.3804970733622291 0.2531914211119841 0.3165069346860755 0.2960408396321598 0.1167898761845911 0.2801836669036398 0.2737225411991555 0.1797476801180947 0.290568641592485 0.2789600338058124 0.3274541466702627 0.3068287426318672 0.3644939770066485 0.3564358168645816 0.3010016064569702 0.2389254378125846 0.2794561281646336 0.2524765044846157 0.3753888545720044 0.2943795386839814 0.2332031833266089 0.3164937645549356 1:10 2:10 3:2 4:2 5:2 6:2 7:3 8:2 9:2 10:2 11:1 12:2 13:1 14:2 15:2 16:2 17:2 18:2 19:2 20:1 21:2 22:2 23:2 24:1 25:2 26:2 27:2 28:3 29:7 30:12 31:10 32:8 33:8 34:7 35:4 
-0.451787718117137 -0.3619171586156981 -0.4538046194561952 -0.5207241473952523 -0.4829566625369449 -0.470224898760097 -0.4444776266474295 0.4936969918858118 0.3749756723565548 0.3904515439285492 0.5348723297893677 0.471988554949038 0.4899141007523857 0.535294546603694 0.3546690098931959 0.4445691113059135 0.4147822414548974 0.1644219066886149 0.3930718364098981 0.3838839457101819 0.252265883131427 0.4077677933887657 0.3912229544509741 0.4611710630474588 0.4318456767063907 0.51167471261706 0.5004542363226979 0.4225584805779248 0.3361550820060888 0.3925437687366832 0.3567881777936125 0.5288826002844457 0.4139955250822226 0.3246849040670443 0.4466162186034168 1:10 2:10 3:1 4:2 5:2 6:2 7:2 8:2 9:2 10:2 11:2 12:2 13:2 14:2 15:1 16:2 17:2 18:1 19:2 20:2 21:2 22:2 23:2 24:2 25:2 26:2 27:2 28:2 29:9 30:12 31:10 32:9 33:8 34:7 35:2 
-0.342768509811461 -0.2749413183656773 -0.3437713595371522 -0.39348938408621 -0.3678042806674912 -0.3567115373816577 -0.3375252889420179 0.3753930671040383 0.2839942813597275 0.2958881903742722 0.4068571756986599 0.3581624959771897 0.3722876127063531 0.4077038853386286 0.2711838791459132 0.3380879939794086 0.3151490688787099 0.1252977929478739 0.2979932790236595 0.2926073280771473 0.1917495015820921 0.3101681189208924 0.2965701079230235 0.3505153701608872 0.3277292410354368 0.3879530382445122 0.3801057316193575 0.3212272508230632 0.2551490282879822 0.29790672126992 0.2693957158982074 0.4007125120348021 0.3146595178057797 0.2439498857533917 0.3397270991607414 1:10 2:10 3:2 4:2 5:1 6:2 7:1 8:1 9:2 10:2 11:3 12:2 13:2 14:2 15:1 16:1 17:2 18:1 19:1 20:2 21:2 22:2 23:2 24:2 25:3 26:2 27:2 28:3 29:8 30:11 31:9 32:8 33:8 34:6 35:4 
-0.5757005206762994 -0.4546393207640973 -0.5969921666352714 -0.7091682766342211 -0.6477340890568812 -0.6428535474966909 -0.5831047837850509 -0.523180192932149 0.4756618228413576 0.4981692446610684 0.7368875990968626 0.6233489344667887 0.6575958576404282 0.7384574038869851 0.4442674859445296 0.582007981799522 0.5352981708054049 0.1876290834068559 0.5013520371070874 0.4877934014496312 0.2995923167292023 0.5242463111372452 0.4987194722313987 0.5910755815961585 0.561990082993713 0.684166022405388 0.6762214319287413 0.6116452500547463 0.4161123772730849 0.5008712129052296 0.4483099607912842 0.7356238589236126 0.5362299568048079 0.3855868410122823 0.5858767629928907 1:4 2:6 3:8 4:5 5:3 6:2 7:2 8:3 9:4 10:5 11:6 12:5 13:7 14:6 15:3 16:3 17:3 18:4 19:3 20:3 21:3 22:7 23:7 24:6 25:2 26:5 27:19 28:12 29:11 30:9 31:10 32:12 33:15 34:16 35:1 
-0.2820727914768266 -0.2257344005258315 -0.2961030477082995 -0.3507009930885793 -0.321434696187773 -0.2902160893928485 -0.2855137218673078 -0.2597003553781072 0.2341469331533659 0.2467949815247268 0.3657307817536812 0.3054471848144286 0.3266133032090379 0.3667491040821445 0.2209811084147332 0.2852018705676005 0.2661217379596332 0.09279971184826721 0.2487089407810514 0.2426259970968064 0.1488713501063197 0.2602312347629776 0.247774179376467 0.3252547214214287 0.2786173355812602 0.3938714554225188 0.3361212689887738 0.2043761490450032 0.2062842901616609 0.2489096279593265 0.2210665211750541 0.3614768944008916 0.2652288610112638 0.1909355561397988 0.291059037780215 1:4 2:7 3:6 4:4 5:3 6:2 7:2 8:3 9:3 10:5 11:8 12:5 13:8 14:6 15:4 16:4 17:4 18:4 19:4 20:4 21:4 22:5 23:8 24:7 25:2 26:7 27:22 28:11 29:9 30:8 31:8 32:11 33:15 34:20 35:5 
-0.7658690525243477 -0.5640653621058916 -0.7409708060021628 -0.8829022345672451 -0.8042801771114494 -0.7715580072321836 -0.7225310951685314 -0.6502512797995952 0.5873395604260854 0.6175231494567807 0.9157346418799619 0.7796601807225449 0.8174869686550531 0.9166718802354656 0.5527018066465643 0.7684127379325147 0.6648651555974173 0.2332279502809111 0.6223200543067099 0.6064577256877709 0.37232062468663 0.6511799636109331 0.6193881011995481 0.840388242156321 0.6974182124272325 0.9467390492539444 0.8400255010052595 0.6734678253024862 0.5165099432436058 0.6222890645986877 0.5539607162424871 0.900618520557054 0.6636166473429589 0.4780652369608089 0.7280878094756763 1:4 2:6 3:4 4:4 5:4 6:4 7:5 8:4 9:3 10:3 11:6 12:5 13:7 14:5 15:5 16:4 17:4 18:4 19:4 20:4 21:5 22:8 23:8 24:6 25:4 26:8 27:19 28:10 29:9 30:8 31:8 32:9 33:17 34:20 35:12 
-0.5835406816719806 -0.3959908710066717 -0.5199185662577419 -0.6187803165932262 -0.5639169539850677 -0.6448904767729057 -0.5182378621271333 -0.4555407772443856 0.4128949418716451 0.4339637011769333 0.6422508098228298 0.5628889841081313 0.573538821209586 0.6437282455960057 0.3878391279870598 0.5048990383682217 0.4668738756987169 0.1636297517694845 0.4367522876417527 0.4258585926239608 0.2614553706546047 0.4572858355283148 0.4341720906198947 0.5573762520474301 0.4899672124342376 0.6261280239865605 0.5892411244902965 0.5642630133538465 0.3626822866521974 0.4362691565939806 0.3893811245980636 0.6351819482751728 0.465550471046708 0.3356439386783702 0.5107144305407343 1:6 2:7 3:6 4:3 5:2 6:2 7:2 8:2 9:2 10:4 11:7 12:6 13:6 14:4 15:4 16:4 17:4 18:4 19:4 20:4 21:2 22:6 23:8 24:6 25:2 26:6 27:19 28:12 29:9 30:8 31:8 32:9 33:11 34:19 35:6 
-0.4707395716881893 -0.3607167109816616 -0.4743731311485706 -0.5632112687209624 -0.5138905604025336 -0.5041863080189368 -0.4607136354440496 -0.4161763201907432 0.3747844771158474 0.395111803340392 0.58589364583814 0.5008842909788503 0.5226885860309645 0.5868528918985197 0.3536039286451453 0.4654399786875354 0.4255000819763157 0.148883239823691 0.3987312450225962 0.3874861075328653 0.2386085840794209 0.4166464663715623 0.3961475665373096 0.4876025201406654 0.4466121874916907 0.5519698639007213 0.5375662716606406 0.4685794298705611 0.330846581820825 0.3979967490402086 0.3548989364336132 0.5761003242665562 0.4244825658065431 0.3061616826670787 0.4657297021170248 1:4 2:6 3:8 4:4 5:4 6:2 7:2 8:4 9:4 10:4 11:7 12:5 13:8 14:4 15:5 16:4 17:4 18:4 19:4 20:4 21:6 22:4 23:8 24:6 25:2 26:6 27:20 28:16 29:8 30:9 31:9 32:8 33:15 34:19 35:7 
-0.3752747069097729 -0.2940470138864145 -0.3868753031253838 -0.4586420462861033 -0.4193848494583179 -0.3942649921586126 -0.3793551110137727 -0.3396139814499824 0.3065458600669555 0.3223888816992261 0.4783809977710749 0.4014946733951344 0.4263734307825289 0.4786533942994005 0.2888585183977671 0.3769545176457642 0.3475283662228545 0.1217261756192493 0.3252540194456048 0.3167226732714591 0.1946116319048146 0.3399804339785883 0.3234404665693119 0.3767793443895783 0.3641898401840263 0.4614758489477735 0.4385890149387042 0.3668154273715778 0.2694111239587078 0.3246796509551547 0.289065686042718 0.4727902811447794 0.3458340650778514 0.250009526131199 0.3797847982189845 1:2 2:6 3:7 4:6 5:2 6:2 7:2 8:2 9:4 10:5 11:7 12:6 13:8 14:6 15:2 16:4 17:4 18:4 19:4 20:4 21:4 22:8 23:8 24:6 25:1 26:6 27:19 28:12 29:10 30:9 31:10 32:11 33:12 34:19 35:6 
-0.4137874425338726 -0.2399853514332267 -0.3157914675008677 -0.3862566213073697 -0.3424226951826444 -0.3662852441147844 -0.3081212726089411 -0.2771943779644721 0.2486591000317855 0.2629318737238421 0.390905406905686 0.3625245041234281 0.348690034760535 0.3911130702552273 0.2354184373238948 0.308194675930182 0.2840473749971358 0.09916089027771778 0.2649957993492634 0.2579802826519975 0.1590624199443526 0.2774922715909187 0.2633765073274288 0.4424846311081646 0.2970314703348579 0.4473360197187348 0.3586492717952988 0.4473925960452826 0.2208629276015462 0.2647337717974707 0.2359243632796119 0.3816260743973875 0.2829950109027147 0.2030612403790145 0.3101670763040906 1:2 2:6 3:8 4:5 5:3 6:2 7:2 8:2 9:3 10:4 11:5 12:6 13:6 14:4 15:2 16:3 17:4 18:4 19:4 20:3 21:4 22:6 23:8 24:6 25:2 26:6 27:19 28:11 29:8 30:8 31:8 32:9 33:14 34:18 35:3 
-0.5778083003567021 -0.4465697713863233 -0.5862974419815561 -0.6971984729058656 -0.6367026069268834 -0.6147729518680806 -0.5716572378258525 -0.5141111093445441 0.4642323676047 0.4887358713584081 0.7248570137269646 0.6151657785158723 0.6466349614685787 0.7260599407107 0.4373965048276287 0.5700040856965112 0.5264789283012173 0.1844383772776339 0.4927273142250119 0.4796514940039484 0.2945360439903097 0.5155384432352949 0.4898538949825108 0.595975066580645 0.5519304073795992 0.6824847417856754 0.6646487057531979 0.5312447790420411 0.4092409182890223 0.4922801049270403 0.4383259788149759 0.716730200972489 0.5255450720237144 0.378761688636063 0.5760149946493035 1:4 2:7 3:5 4:4 5:3 6:3 7:3 8:4 9:4 10:7 11:5 12:7 13:7 14:7 15:4 16:4 17:4 18:4 19:4 20:4 21:5 22:4 23:8 24:6 25:2 26:6 27:21 28:15 29:9 30:8 31:10 32:10 33:18 34:18 35:4 
-0.4787344292494558 -0.3706719755682962 -0.486906602042163 -0.5797450012538157 -0.5283558155424088 -0.505171801614409 -0.4933560489869471 -0.4264101437754098 0.3943063686989007 0.4064391410712946 0.6010892297424805 0.5131503223068651 0.5363496708842402 0.6021268934729929 0.3629970200834287 0.4742700195910257 0.4367084665619434 0.1530001528903025 0.4085629590852399 0.398517204195999 0.2446563579647691 0.4275647696049898 0.4071883062862424 0.4918494528377318 0.457889251973033 0.5583682910049291 0.5514258010029173 0.5588252775858282 0.3391427099959311 0.4082109078288575 0.3660366430976488 0.5904418030867248 0.4362850844433567 0.3139440980260428 0.4774533993685319 1:1 2:6 3:6 4:4 5:4 6:2 7:2 8:2 9:3 10:3 11:6 12:6 13:7 14:7 15:4 16:4 17:4 18:4 19:4 20:4 21:4 22:4 23:8 24:6 25:2 26:7 27:18 28:12 29:8 30:10 31:9 32:8 33:15 34:15 35:5 
-0.7867089556755545 -0.5263870475286035 -0.6915623411195518 -0.8227679477241087 -0.7500817874514675 -0.7291087344545567 -0.676433205586396 -0.606081173366077 0.5480792634886856 0.5760386663692981 0.8547683937096677 0.7359046243275327 0.7622860002234071 0.8563773367639246 0.5157273929806119 0.7618864735170455 0.6206069062148454 0.216958281105584 0.5810294382059431 0.5661130606335296 0.3477294355825455 0.6075157931124116 0.577856150133624 0.8095822785323602 0.651411001907509 0.8573090466615011 0.7840139814823899 0.6378261629039065 0.4825514625262199 0.5800762857070468 0.5176155814717933 0.8422907443670449 0.6193772658512036 0.4465792440789713 0.6791054349704789 1:6 2:6 3:4 4:3 5:3 6:3 7:3 8:3 9:4 10:6 11:6 12:6 13:6 14:6 15:5 16:4 17:4 18:4 19:4 20:4 21:6 22:6 23:8 24:6 25:2 26:8 27:19 28:14 29:9 30:7 31:7 32:9 33:13 34:19 35:13 
-0.3649732641730828 -0.2818117403503657 -0.3696498367563277 -0.439008430850939 -0.4008107842437383 -0.3874187581562196 -0.3612658525842991 -0.3239359173956828 0.2936821195716333 0.3077416039953328 0.456652066953935 0.3874080262881209 0.4076978783291574 0.4574058716213937 0.275297674221759 0.3628991604035001 0.3315051175755914 0.1162798061508667 0.3100951104065162 0.3017930514474239 0.1853948251973799 0.3247265701086635 0.308666562825693 0.3721102630375023 0.348217038298448 0.4219559449566667 0.4191526148007427 0.3521061888061064 0.2577119167784035 0.3104446281435811 0.2759771510916637 0.4492773699465715 0.3311878836463568 0.2381900344917081 0.3626490054114 1:2 2:6 3:8 4:4 5:3 6:3 7:3 8:2 9:4 10:6 11:7 12:6 13:8 14:8 15:4 16:4 17:4 18:3 19:3 20:4 21:4 22:4 23:8 24:7 25:2 26:6 27:20 28:14 29:9 30:10 31:10 32:9 33:13 34:18 35:8 
-0.1752748238511325 -0.1434143567701622 -0.1761576059896594 -0.1990843594113831 -0.1868786809206736 -0.1815257783235482 -0.1730081251305443 -0.1595904203945354 -0.1904437244964956 0.1536875914520432 0.2054580658313188 0.1824836482374435 0.1895068403513499 0.2055120160711258 0.1409006140404559 0.1736815765865357 0.1630748738821709 0.06780768872470894 0.1553531757212762 0.1524201800092682 0.1016271346151697 0.1602842399870062 0.1539396171299088 0.1791387822284242 0.1684198861116884 0.1964805944368239 0.1938431509162259 0.1629341412973793 0.1346189616030811 0.1543723034993092 0.1347013999242142 0.2027097611950945 0.1615019085995478 0.131802672401202 0.1737636097099936 1:6 2:6 3:6 4:5 5:5 6:4 7:4 8:4 9:4 10:4 11:4 12:6 13:8 14:8 15:6 16:3 17:3 18:2 19:2 20:2 21:2 22:2 23:2 24:2 25:3 26:9 27:12 28:8 29:9 30:11 31:12 32:11 33:12 34:12 35:7 
-0.3024506992812045 -0.2461743057361075 -0.303351720951633 -0.3423993259573797 -0.3216880587345441 -0.3127220272255858 -0.3000979163909229 -0.274718984887404 -0.3299661430851398 0.2676202865282816 0.352818508470125 0.3145819898619257 0.3257470662567453 0.3524841835341591 0.2423516482012592 0.2982760827203869 0.2797317394738684 0.1165635520035605 0.2665196250473438 0.2604931292687545 0.1758375326855532 0.2748244495506794 0.2648974769314999 0.3077412271450392 0.2895736981288879 0.3389106891019157 0.3315354029136756 0.293117544178754 0.2303753326440856 0.2656520402831601 0.2688504786165838 0.3475312587799126 0.2846683511904464 0.2258362210746354 0.2989309596918902 1:2 2:6 3:7 4:6 5:4 6:3 7:4 8:4 9:4 10:3 11:3 12:5 13:5 14:8 15:6 16:5 17:2 18:3 19:2 20:2 21:2 22:2 23:2 24:3 25:2 26:7 27:12 28:9 29:9 30:12 31:11 32:10 33:11 34:11 35:3 
-0.5422765425552664 -0.4417217823913078 -0.5434813047744906 -0.614447236213075 -0.5761041959353492 -0.5616119004153649 -0.5355096781796455 -0.4925380381487293 -0.5867601801598753 0.4733528752432489 0.6308699660488558 0.5640335962988823 0.5827983713609245 0.6319612881889689 0.4343010423003733 0.5338575057638908 0.50125974916606 0.2087964047359603 0.4763264895915362 0.4668852999754076 0.3143024619604827 0.4926170727640083 0.4748639230848811 0.552069158676724 0.519409107870463 0.6063549421184745 0.5939305792210838 0.5116617101531935 0.4121133317251339 0.4765799424174917 0.4352709433450904 0.6236174961307483 0.5002914257122124 0.4047298084778268 0.535526697915839 1:4 2:6 3:8 4:4 5:5 6:5 7:4 8:4 9:4 10:4 11:4 12:6 13:4 14:8 15:6 16:2 17:2 18:2 19:2 20:3 21:2 22:3 23:2 24:2 25:2 26:7 27:12 28:8 29:9 30:11 31:11 32:10 33:9 34:13 35:8 
-0.5132935086336078 -0.419342060056759 -0.5159716406423037 -0.5869653393686908 -0.5460790536477611 -0.5325721123245982 -0.5060415147572144 -0.4678437540526608 -0.5572527969516299 0.4482815883442588 0.598341056473364 0.5349754674379202 0.5529295183796185 0.599790595589261 0.4120822933735583 0.5070580555261768 0.4754016025188252 0.1983899136268215 0.4518251063856857 0.4432357763625526 0.2985725692270227 0.4679748151789642 0.4502032216103582 0.5239760443258117 0.4929120468307565 0.5746856734920982 0.5636994948333921 0.4838367450011714 0.3908360812386533 0.4515020053951832 0.4175641831115384 0.592332097407142 0.4741516032441935 0.3839367972738954 0.5087811897188413 1:4 2:7 3:7 4:5 5:4 6:3 7:3 8:3 9:3 10:3 11:4 12:5 13:6 14:8 15:6 16:2 17:2 18:2 19:2 20:2 21:2 22:2 23:2 24:2 25:2 26:8 27:10 28:7 29:9 30:10 31:11 32:11 33:11 34:12 35:2 
-0.06558357694220714 -0.05271296850125423 -0.06569183488612 -0.07495862453685981 -0.06843911179691904 -0.06829371872979791 -0.06339545725473864 -0.05825250265841381 -0.07122578426277308 0.05704801453034158 0.07551095802944784 0.06826629789028296 0.06969960512590066 0.07549346849284146 0.05178997755516254 0.06329016077887557 0.05950195714190604 0.02493665790169028 0.05661245438332287 0.05512876348113679 0.03822150209064758 0.05854577216451477 0.05625216883869224 0.06632553574596388 0.06214556722876799 0.07202388100562893 0.07130519942340466 0.06475256841512525 0.04875363103880998 0.05741836865436197 0.06809312490029876 0.07416123181409372 0.06165653284758128 0.04683955625175668 0.06409888508035175 1:5 2:6 3:8 4:4 5:3 6:4 7:4 8:4 9:4 10:4 11:3 12:4 13:6 14:8 15:7 16:2 17:2 18:3 19:2 20:2 21:2 22:2 23:2 24:3 25:2 26:7 27:12 28:8 29:9 30:10 31:10 32:10 33:11 34:13 35:6 
-0.5406337996058526 -0.4417617904687161 -0.5442431686818788 -0.6141242803712759 -0.5746989643577952 -0.5615804790451236 -0.533140487764161 -0.4915622128453221 -0.5864689396010743 0.4896750334676963 0.6301778622276589 0.5624601609473359 0.5817522873961819 0.6312225293487876 0.4335960664606678 0.5336188654603956 0.5001650616379748 0.2086604521151047 0.4756235758963462 0.4661759487727391 0.3145894435712266 0.4924474734234106 0.473791053971322 0.5504976494471596 0.5189710074323711 0.6047597413619128 0.5940662318051089 0.5106062450163459 0.4105952162337593 0.4758054491503236 0.4899032966848347 0.6236018713844209 0.5157352622490348 0.4041295200232374 0.5354320133127566 1:2 2:6 3:7 4:5 5:5 6:4 7:4 8:4 9:4 10:3 11:4 12:4 13:6 14:6 15:6 16:5 17:3 18:2 19:2 20:2 21:1 22:1 23:2 24:2 25:3 26:7 27:12 28:8 29:9 30:11 31:11 32:11 33:12 34:9 35:3 
-0.2070400495333185 -0.168938130288676 -0.2065047778250686 -0.2340750456901416 -0.2209995578739422 -0.2139530824353849 -0.2045240060009793 -0.1883796430959211 -0.2240131764376352 0.1757330364187395 0.2414224791193449 0.2148285084841109 0.2226623298353433 0.2413255121187058 0.1667743468662324 0.2033272261347243 0.1912358207057281 0.07982964933998704 0.182821641845793 0.1790491842002723 0.1200913348868711 0.1886694348496749 0.1817982371316049 0.2114061571267149 0.198487216397442 0.2324636864070179 0.2267788939994375 0.1917853275979702 0.1578136001135287 0.1818208411849834 0.1557595722726143 0.2384950620809601 0.1846517767134351 0.154968405719878 0.2045660769593921 1:2 2:6 3:7 4:6 5:3 6:4 7:4 8:4 9:4 10:3 11:4 12:4 13:7 14:7 15:6 16:3 17:3 18:2 19:2 20:2 21:2 22:1 23:2 24:2 25:2 26:8 27:12 28:7 29:9 30:10 31:12 32:10 33:10 34:10 35:4 
-0.5911212475277018 -0.4813863284989588 -0.5925279049932256 -0.6716913634151171 -0.6287840043901962 -0.6122514898783662 -0.5820516734905015 -0.5369199131771365 -0.6416154408621803 0.5172062395321815 0.6880979445744007 0.6145380724541508 0.6350941380204054 0.6890308710511277 0.4737494703230664 0.5823689685087834 0.5467614241605067 0.2278047739213144 0.5195747951905209 0.5092518487442792 0.3436849619775456 0.5385305011575333 0.5175259080423608 0.6031841958484677 0.5658767541186919 0.6611487193644706 0.6478611730790731 0.56280604120611 0.4487631046062946 0.5190218667475531 0.4910777026121198 0.6802530062607719 0.5511329252545284 0.4397407871180495 0.5846244025266248 1:4 2:6 3:6 4:6 5:5 6:5 7:4 8:4 9:5 10:5 11:5 12:4 13:5 14:8 15:6 16:1 17:1 18:2 19:2 20:3 21:2 22:3 23:3 24:3 25:2 26:8 27:12 28:8 29:10 30:9 31:10 32:12 33:12 34:12 35:7 
-0.7385330889329862 -0.6017827393870286 -0.7397585537389542 -0.8377959685443475 -0.7855167110036726 -0.7654335625306931 -0.7280688359539299 -0.6712580133384681 -0.8039730006759431 0.6460682962573446 0.860401811025563 0.7678741016063324 0.7945889230477621 0.8611293193526995 0.5925246093486333 0.7281824528703995 0.6835499620191123 0.2848435996826866 0.649235238717652 0.6361145698085177 0.4291816317307411 0.6725486429782783 0.6473303600315009 0.7529377022954219 0.7086933291912424 0.8268711976035068 0.8099071622945839 0.6979799434360935 0.5613846855016541 0.6490522606621086 0.5943685374163897 0.8511290020636373 0.6827765365654342 0.550978399650164 0.7300521509578642 1:6 2:8 3:6 4:5 5:4 6:4 7:4 8:4 9:4 10:4 11:5 12:6 13:8 14:8 15:7 16:5 17:2 18:3 19:2 20:2 21:2 22:2 23:2 24:2 25:2 26:7 27:13 28:9 29:9 30:11 31:12 32:11 33:12 34:15 35:8 
